/*!
 * The following copyright notice may not be removed under any circumstances.
 * 
 * Copyright:
 * Copyright 1990 as an unpublished work by Bitstream Inc.  All rights reserved. 
 * Confidential.
 */
Cufon.registerFont({"w":500,"face":{"font-family":"Geometric Slabserif","font-weight":500,"font-stretch":"normal","units-per-em":"1000","panose-1":"2 0 6 3 0 0 0 0 0 0","ascent":"800","descent":"-200","x-height":"14","bbox":"-167 -963 1007 236","underline-thickness":"72","underline-position":"-84","stemh":"88","stemv":"87","unicode-range":"U+0020-U+FB02"},"glyphs":{" ":{"w":248},"!":{"d":"82,0r0,-123r111,0r0,123r-111,0xm112,-187r-21,-288r0,-219r93,0r0,219r-21,288r-51,0","w":275},"\"":{"d":"112,-701r0,271r-68,0r0,-271r68,0xm256,-701r0,271r-68,0r0,-271r68,0","w":300},"#":{"d":"451,-712r-79,222r125,0r80,-222r80,0r-78,222r147,0r-25,71r-148,0r-45,129r157,0r-25,71r-157,0r-79,221r-81,0r79,-221r-126,0r-79,221r-81,0r78,-221r-151,0r26,-71r151,0r45,-129r-161,0r25,-71r162,0r79,-222r81,0xm473,-419r-127,0r-45,129r127,0","w":769},"$":{"d":"34,-9r0,-210r79,0r0,63v30,43,61,65,105,79r0,-249r-54,-18v-90,-30,-136,-90,-136,-174v0,-106,71,-176,190,-179r0,-74r53,0r0,78v32,7,60,22,87,48r0,-46r72,0r0,181r-73,0r0,-50v-22,-31,-49,-50,-86,-63r0,220v110,23,194,90,194,209v0,117,-73,193,-194,199r0,82r-53,0r0,-86v-39,-7,-73,-25,-105,-53r0,43r-79,0xm218,-415r0,-215v-70,6,-108,44,-108,103v0,60,31,89,108,112xm271,-319r0,246v73,-9,112,-50,112,-117v0,-66,-36,-108,-112,-129","w":495},"%":{"d":"162,-303v-79,0,-136,-74,-136,-202v0,-129,57,-201,136,-201v78,0,135,72,135,201v0,129,-57,202,-135,202xm550,14v-79,0,-135,-73,-135,-201v0,-129,56,-202,135,-202v78,0,135,73,135,202v0,129,-57,201,-135,201xm550,-49v36,0,65,-48,65,-138v0,-90,-28,-139,-65,-139v-37,0,-65,49,-65,139v0,91,30,138,65,138xm161,-366v36,0,65,-49,65,-139v0,-90,-28,-138,-65,-138v-37,0,-64,48,-64,138v0,91,29,139,64,139xm602,-706r-424,720r-68,0r424,-720r68,0","w":713},"&":{"d":"514,0r-47,-63v-59,55,-113,77,-188,77v-135,0,-234,-97,-234,-227v0,-101,50,-173,153,-220v-23,-49,-37,-89,-37,-123v0,-86,61,-150,157,-150v102,0,161,59,161,148v0,75,-47,124,-147,160r139,187v25,-50,44,-103,56,-161r140,0r0,87r-76,0v-13,48,-34,96,-65,147r42,55r99,0r0,83r-153,0xm283,-465v75,-22,110,-49,110,-97v0,-41,-29,-70,-75,-70v-91,0,-84,103,-35,167xm246,-362v-66,24,-102,74,-102,135v0,83,67,152,150,152v44,0,83,-18,124,-55","w":708},"\u2019":{"d":"72,-572r0,-122r112,0r0,122v0,88,-37,135,-114,140r0,-56v48,-9,56,-33,54,-84r-52,0","w":248},"(":{"d":"359,157v-161,-52,-256,-206,-256,-432v0,-226,96,-380,256,-431r0,64v-111,61,-160,180,-160,367v0,188,48,306,160,367r0,65","w":375},")":{"d":"19,-706v161,52,256,205,256,431v0,226,-96,381,-256,432r0,-64v111,-61,160,-180,160,-367v0,-188,-48,-307,-160,-368r0,-64","w":375},"*":{"d":"368,-628r22,68r-121,31r80,96r-58,42r-67,-105r-66,105r-58,-42r79,-96r-121,-31r23,-68r115,46r-8,-124r72,0r-8,124","w":449},"+":{"d":"451,-596r0,264r258,0r0,68r-258,0r0,264r-69,0r0,-264r-258,0r0,-68r258,0r0,-264r69,0","w":833},",":{"d":"62,0r0,-123r113,0r0,123v0,88,-38,134,-115,139r0,-55v47,-9,57,-33,55,-84r-53,0","w":248},"-":{"d":"42,-206r0,-86r243,0r0,86r-243,0","w":326},".":{"d":"66,0r0,-123r116,0r0,123r-116,0","w":248},"\/":{"d":"36,93r-62,0r269,-799r62,0","w":306},"0":{"d":"462,-336v0,224,-86,350,-215,350v-131,0,-213,-126,-213,-360v0,-234,82,-360,213,-360v134,0,215,127,215,370xm248,-69v69,0,119,-95,119,-271v0,-193,-45,-292,-119,-292v-72,0,-120,96,-120,281v0,186,49,282,120,282","w":495},"1":{"d":"117,0r0,-86r90,0r0,-523r-90,0r0,-85r183,0r0,608r86,0r0,86r-269,0","w":495},"2":{"d":"24,0v-2,-105,30,-188,95,-254v54,-54,110,-88,153,-124v48,-41,70,-76,70,-136v0,-70,-42,-113,-103,-113v-80,0,-114,62,-115,190r-87,0v-11,-166,71,-269,212,-269v114,0,192,76,192,193v0,145,-140,215,-213,272v-65,51,-101,101,-105,155r236,0r0,-159r86,0r0,245r-421,0","w":495},"3":{"d":"181,-325r0,-81v101,4,162,-37,162,-117v0,-66,-40,-107,-103,-107v-74,-1,-108,50,-107,147r-86,0v-5,-140,69,-223,191,-223v122,0,198,74,198,180v0,74,-36,127,-108,156v88,32,127,86,127,176v0,125,-86,208,-218,208v-131,0,-212,-90,-209,-245r89,0v-1,108,48,169,124,169v70,0,122,-53,122,-129v0,-95,-69,-142,-182,-134","w":495},"4":{"d":"211,0r0,-86r78,0r0,-111r-238,0v-4,-32,-14,-55,-37,-77r272,-432r86,0r0,432r98,0r0,77r-98,0r0,111r67,0r0,86r-228,0xm289,-274r4,-316r-196,316r192,0","w":495},"5":{"d":"116,-227v-1,99,40,157,113,156v75,0,126,-58,126,-155v0,-163,-189,-189,-241,-64r-66,-52r37,-352r330,0r0,187r-81,0r0,-102r-187,0r-20,199v41,-30,81,-44,126,-44v120,0,197,87,197,224v0,146,-88,244,-221,244v-132,0,-208,-89,-204,-241r91,0","w":495},"6":{"d":"130,-291v-11,128,41,223,129,223v68,0,120,-56,120,-147v0,-93,-45,-148,-117,-148v-41,0,-89,24,-132,72xm372,-505v0,-85,-35,-127,-105,-127v-90,0,-139,94,-137,257v132,-132,333,-60,333,159v0,141,-88,230,-209,230v-141,0,-219,-116,-219,-342v0,-250,87,-378,233,-378v120,1,191,75,186,201r-82,0","w":495},"7":{"d":"99,0r0,-86r81,0v5,-185,73,-343,181,-523r-240,0r0,105r-79,0r0,-190r421,0r0,70v-124,198,-186,363,-184,538r74,0r0,86r-254,0","w":495},"8":{"d":"351,-367v76,28,117,91,117,181v0,115,-89,200,-220,200v-131,0,-220,-85,-220,-200v0,-90,41,-153,117,-181v-64,-25,-102,-83,-102,-158v0,-105,83,-181,205,-181v122,0,205,76,205,181v0,75,-38,133,-102,158xm134,-520v0,61,49,112,113,112v65,0,114,-50,114,-112v0,-62,-49,-112,-114,-112v-65,0,-113,51,-113,112xm123,-198v0,69,54,126,124,126v72,0,125,-57,125,-126v0,-69,-53,-125,-125,-125v-70,0,-124,56,-124,125","w":495},"9":{"d":"120,-187v0,85,35,127,105,127v90,0,139,-94,137,-257v-132,131,-333,60,-333,-159v0,-141,88,-230,209,-230v141,0,219,115,219,341v0,251,-83,379,-241,379v-113,0,-183,-76,-178,-201r82,0xm363,-402v11,-128,-41,-223,-129,-223v-68,0,-121,56,-121,147v0,93,46,149,118,149v41,0,89,-25,132,-73","w":495},":":{"d":"77,0r0,-123r116,0r0,123r-116,0xm77,-366r0,-122r116,0r0,122r-116,0","w":271},";":{"d":"78,0r0,-123r113,0r0,123v0,88,-38,134,-115,139r0,-55v47,-9,57,-33,55,-84r-53,0xm76,-366r0,-122r116,0r0,122r-116,0","w":271},"<":{"d":"704,-491r-473,193r473,192r0,75r-575,-236r0,-63r575,-236r0,75","w":833},"=":{"d":"709,-429r0,68r-585,0r0,-68r585,0xm709,-235r0,68r-585,0r0,-68r585,0","w":833},">":{"d":"704,-330r0,63r-575,236r0,-75r474,-192r-474,-193r0,-75","w":833},"?":{"d":"146,0r0,-123r111,0r0,123r-111,0xm162,-412v91,23,169,-28,169,-110v0,-61,-43,-107,-109,-107v-70,0,-113,51,-110,136r-89,0v-4,-134,75,-212,201,-213v121,0,202,82,202,183v0,109,-69,181,-189,194r-9,132r-54,0","w":468},"@":{"d":"581,-232r29,-115v-11,-58,-46,-90,-97,-90v-90,0,-159,97,-159,219v0,69,33,107,91,107v62,0,118,-48,136,-121xm949,-381v3,169,-108,324,-275,324v-69,0,-101,-27,-98,-86v-36,58,-83,85,-147,85v-99,0,-153,-57,-153,-162v0,-155,103,-270,233,-270v56,0,95,25,118,73r28,-56r64,0r-71,281v-12,42,1,78,45,75v102,-7,185,-136,185,-255v0,-166,-132,-284,-337,-284v-249,0,-419,184,-419,402v0,210,161,340,380,341v110,0,217,-33,303,-93r27,40v-97,73,-206,109,-324,109v-261,0,-458,-159,-456,-398v2,-272,227,-461,493,-461v224,0,401,138,404,335","w":1000},"A":{"d":"-28,0r0,-90r80,0r181,-519r-90,0r0,-85r347,0r0,85r-85,0r179,519r75,0r0,90r-260,0r0,-90r84,0r-54,-156r-234,0r-53,156r78,0r0,90r-248,0xm225,-330r174,0r-86,-258","w":632},"B":{"d":"20,0r0,-90r82,0r0,-519r-82,0r0,-85r279,0v141,0,214,63,214,177v0,71,-32,116,-104,148v93,27,142,89,142,173v0,127,-81,196,-239,196r-292,0xm201,-403r73,0v93,0,140,-34,140,-100v0,-67,-45,-106,-134,-106r-79,0r0,206xm201,-87r97,0v97,0,150,-44,150,-117v0,-73,-55,-118,-165,-118r-82,0r0,235","w":598},"C":{"d":"599,-471v-41,-95,-112,-143,-210,-143v-144,0,-248,104,-248,267v0,164,105,268,240,268v110,0,208,-76,247,-201r86,51v-46,152,-171,243,-332,243v-204,0,-348,-149,-348,-360v0,-214,149,-360,348,-360v101,0,170,30,224,101r0,-89r85,0r0,223r-92,0","w":752},"D":{"d":"338,0r-321,0r0,-90r85,0r0,-519r-85,0r0,-85r321,0v219,0,343,129,343,347v0,218,-124,347,-343,347xm201,-91r128,0v160,0,242,-89,242,-259v0,-165,-82,-259,-229,-259r-141,0r0,518","w":715},"E":{"d":"503,-90r0,-132r84,0r0,222r-567,0r0,-90r82,0r0,-519r-82,0r0,-85r567,0r0,206r-84,0r0,-121r-302,0r0,211r270,0r0,83r-270,0r0,225r302,0","w":635},"F":{"d":"20,0r0,-90r82,0r0,-519r-82,0r0,-85r527,0r0,206r-83,0r0,-121r-263,0r0,211r232,0r0,83r-232,0r0,225r91,0r0,90r-272,0","w":565},"G":{"d":"603,-471v-41,-95,-112,-143,-211,-143v-146,0,-251,104,-251,267v0,165,103,268,260,268v123,0,203,-65,214,-171r-127,0r0,-86r238,0v14,218,-125,350,-341,350v-206,0,-350,-149,-350,-360v0,-213,149,-360,350,-360v101,0,172,30,225,101r0,-89r84,0r0,223r-91,0","w":762},"H":{"d":"20,0r0,-90r82,0r0,-519r-82,0r0,-85r267,0r0,85r-86,0r0,196r301,0r0,-196r-85,0r0,-85r267,0r0,85r-82,0r0,519r82,0r0,90r-267,0r0,-90r85,0r0,-240r-301,0r0,240r86,0r0,90r-267,0","w":704},"I":{"d":"284,-694r0,85r-83,0r0,519r83,0r0,90r-264,0r0,-90r82,0r0,-519r-82,0r0,-85r264,0","w":303},"J":{"d":"-32,64v15,5,30,8,46,8v88,0,88,-56,88,-159r0,-522r-82,0r0,-85r264,0r0,85r-83,0r0,561v7,166,-78,232,-233,204r0,-92","w":301},"K":{"d":"201,-90r83,0r0,90r-264,0r0,-90r82,0r0,-519r-82,0r0,-85r264,0r0,85r-83,0r0,519xm437,-609r-76,0r0,-85r259,0r0,85r-71,0r-225,235r228,284r82,0r0,90r-272,0r0,-90r69,0r-230,-279","w":604},"L":{"d":"284,-694r0,85r-83,0r0,519r250,0r0,-235r84,0r0,325r-515,0r0,-90r82,0r0,-519r-82,0r0,-85r264,0","w":590},"M":{"d":"192,-618r0,528r99,0r0,90r-271,0r0,-90r84,0r0,-519r-84,0r0,-85r245,0r191,493r196,-493r238,0r0,85r-85,0r0,519r85,0r0,90r-272,0r0,-90r84,0r0,-520r-248,610r-20,0","w":910},"N":{"d":"191,-582r0,492r85,0r0,90r-259,0r0,-90r85,0r0,-519r-85,0r0,-85r221,0r314,541r0,-456r-85,0r0,-85r274,0r0,85r-100,0r0,609r-113,0","w":744},"O":{"d":"382,-706v206,0,347,149,347,360v0,211,-143,360,-347,360v-204,0,-348,-149,-348,-360v0,-214,150,-360,348,-360xm622,-347v0,-160,-103,-266,-241,-266v-133,0,-240,103,-240,266v0,164,105,268,240,268v135,0,241,-104,241,-268","w":764},"P":{"d":"201,-90r83,0r0,90r-264,0r0,-90r82,0r0,-519r-82,0r0,-85r279,0v180,0,266,63,266,212v0,149,-85,216,-266,216r-98,0r0,176xm201,-349r83,0v117,0,175,-31,175,-130v0,-129,-120,-135,-258,-130r0,260","w":601},"Q":{"d":"622,-347v0,-160,-103,-266,-241,-266v-133,0,-240,103,-240,266v0,164,105,268,240,268v135,0,241,-104,241,-268xm290,3v-156,-38,-256,-174,-256,-349v0,-213,150,-360,348,-360v206,0,347,149,347,360v0,187,-114,328,-283,354v80,22,105,37,169,24r-28,89v-140,28,-223,-115,-329,-30r-34,-49v19,-21,39,-33,66,-39","w":764},"R":{"d":"201,-90r83,0r0,90r-264,0r0,-90r82,0r0,-519r-82,0r0,-85r297,0v148,0,225,63,225,177v0,91,-49,155,-136,174r118,253r77,0r0,90r-139,0r-157,-334r-104,0r0,244xm201,-410r79,0v107,0,158,-29,158,-98v0,-110,-119,-108,-237,-105r0,203","w":597},"S":{"d":"51,0r0,-238r88,0r0,62v36,67,89,101,152,101v68,0,114,-45,114,-109v0,-55,-31,-96,-90,-116r-123,-41v-94,-32,-142,-92,-142,-177v0,-109,81,-188,192,-188v58,0,111,20,152,58r0,-46r81,0r0,199r-82,0r0,-51v-40,-49,-91,-75,-142,-75v-62,0,-104,37,-104,94v0,96,133,112,207,141v100,38,151,99,151,197v0,122,-82,203,-213,203v-59,0,-108,-19,-153,-58r0,44r-88,0","w":549},"T":{"d":"357,-609r0,519r84,0r0,90r-266,0r0,-90r83,0r0,-519r-137,0r0,184r-84,0r0,-269r541,0r0,269r-83,0r0,-184r-138,0","w":616},"U":{"d":"97,-609r-85,0r0,-85r272,0r0,85r-84,0r0,371v0,108,45,161,147,161v104,0,151,-53,151,-161r0,-371r-85,0r0,-85r265,0r0,85r-84,0r0,322v0,205,-61,301,-249,301v-188,0,-248,-97,-248,-301r0,-322","w":721},"V":{"d":"254,0r-208,-609r-80,0r0,-85r257,0r0,85r-73,0r164,477r164,-477r-81,0r0,-85r257,0r0,85r-87,0r-209,609r-104,0","w":620},"W":{"d":"313,0r-92,0r-165,-609r-74,0r0,-85r257,0r0,85r-87,0r120,465r113,-465r-87,0r0,-85r313,0r0,85r-86,0r120,465r113,-465r-87,0r0,-85r254,0r0,85r-87,0r-151,609r-92,0r-147,-550","w":903},"X":{"d":"-14,0r0,-90r80,0r178,-257r-172,-262r-86,0r0,-85r265,0r0,85r-58,0r111,172r114,-172r-79,0r0,-85r255,0r0,85r-75,0r-164,249r179,270r83,0r0,90r-278,0r0,-90r75,0r-119,-181r-120,181r76,0r0,90r-265,0","w":600},"Y":{"d":"29,-609r-84,0r0,-85r276,0r0,85r-75,0r131,206r135,-206r-87,0r0,-85r271,0r0,85r-85,0r-192,291r0,228r90,0r0,90r-281,0r0,-90r91,0r0,-228","w":542},"Z":{"d":"21,0r0,-88r353,-521r-250,0r0,121r-83,0r0,-206r456,0r0,85r-354,521r285,0r0,-130r84,0r0,218r-491,0","w":544},"[":{"d":"222,76r139,0r0,70r-231,0r0,-840r231,0r0,69r-139,0r0,701","w":375},"\\":{"d":"264,93r-269,-799r62,0r269,799r-62,0","w":306},"]":{"d":"153,-625r-139,0r0,-69r231,0r0,840r-231,0r0,-70r139,0r0,-701","w":375},"^":{"d":"545,-712r249,272r-88,0r-206,-205r-207,205r-88,0r249,-272r91,0","w":1000},"_":{"d":"500,166r0,70r-500,0r0,-70r500,0"},"\u2018":{"d":"177,-567r0,123r-113,0r0,-123v0,-88,38,-134,115,-139r0,56v-48,9,-56,32,-54,83r52,0","w":248},"a":{"d":"344,0r0,-46v-49,40,-98,60,-155,60v-96,0,-160,-63,-160,-155v0,-96,69,-160,173,-160v37,0,83,12,139,35v5,-96,-21,-157,-103,-157v-52,0,-88,21,-118,63r-85,-22v31,-75,106,-118,210,-118v139,0,184,67,184,203r0,211r74,0r0,86r-159,0xm344,-136r0,-36v-45,-27,-82,-44,-125,-44v-57,0,-94,30,-94,72v0,38,32,68,80,68v41,0,86,-21,139,-60","w":513},"b":{"d":"15,0r0,-86r70,0r0,-527r-70,0r0,-81r156,0r0,279v45,-42,95,-73,166,-73v128,0,220,96,220,251v0,155,-91,251,-220,251v-62,0,-111,-23,-163,-72r0,58r-159,0xm318,-73v88,0,144,-61,144,-166v0,-105,-56,-166,-144,-166v-87,0,-144,60,-144,166v0,105,63,166,144,166","w":590},"c":{"d":"412,-306v-18,-72,-64,-109,-130,-109v-93,0,-151,64,-151,171v0,107,60,168,150,168v65,0,121,-35,154,-98r77,38v-37,92,-125,150,-231,150v-146,0,-249,-101,-249,-257v0,-215,229,-334,380,-202r0,-43r78,0r0,182r-78,0","w":535},"d":{"d":"273,-73v81,0,143,-62,143,-166v0,-106,-56,-166,-143,-166v-88,0,-145,61,-145,166v0,104,57,166,145,166xm419,-613r-70,0r0,-81r156,0r0,608r70,0r0,86r-159,0r0,-58v-143,149,-382,56,-382,-179v0,-155,91,-251,219,-251v63,0,113,23,166,73r0,-198","w":590},"e":{"d":"138,-290r277,0v-10,-84,-59,-129,-139,-129v-80,0,-131,47,-138,129xm130,-218v2,85,63,142,153,142v64,0,121,-32,155,-86r77,40v-50,89,-130,136,-233,136v-151,0,-250,-100,-250,-257v0,-157,101,-257,244,-257v148,0,237,101,237,282r-383,0","w":547},"f":{"d":"13,0r0,-86r74,0r0,-321r-74,0r0,-81r74,0v-6,-123,15,-218,118,-218v72,0,114,40,121,118r-79,11v-7,-35,-15,-51,-38,-51v-41,-10,-33,86,-34,140r81,0r0,81r-81,0r0,321r81,0r0,86r-243,0","w":271},"g":{"d":"272,-80v81,0,143,-60,143,-162v0,-103,-56,-163,-143,-163v-88,0,-145,60,-145,163v0,103,57,162,145,162xm504,-95v11,173,-70,269,-227,269v-74,0,-139,-21,-192,-61r55,-64v44,35,86,50,139,50v102,2,143,-63,136,-175v-40,52,-95,79,-163,79v-129,0,-220,-94,-220,-246v0,-151,90,-245,220,-245v64,0,113,22,166,71r0,-71r156,0r0,81r-70,0r0,312","w":590},"h":{"d":"86,-86r0,-527r-70,0r0,-81r158,0r0,278v59,-48,109,-72,164,-72v103,0,118,65,118,174r0,228r72,0r0,86r-160,0r0,-278v0,-86,-1,-132,-62,-132v-44,0,-85,25,-132,75r0,249r71,0r0,86r-229,0r0,-86r70,0","w":539},"i":{"d":"68,-637v0,-31,25,-57,57,-57v31,0,58,26,58,57v0,33,-26,58,-58,58v-33,0,-57,-25,-57,-58xm176,-86r72,0r0,86r-229,0r0,-86r69,0r0,-321r-69,0r0,-81r157,0r0,402","w":262},"j":{"d":"172,-18v16,136,-61,216,-196,187r0,-78v71,9,108,-11,108,-81r0,-417r-69,0r0,-81r157,0r0,470xm64,-637v0,-31,26,-57,58,-57v31,0,57,26,57,57v0,33,-25,58,-57,58v-33,0,-58,-25,-58,-58","w":248},"k":{"d":"86,-613r-70,0r0,-81r158,0r0,608r71,0r0,86r-229,0r0,-86r70,0r0,-527xm356,-407r-64,0r0,-81r224,0r0,81r-57,0r-171,144r167,177r70,0r0,86r-111,0r-237,-256","w":523},"l":{"d":"86,-613r-70,0r0,-81r158,0r0,608r71,0r0,86r-229,0r0,-86r70,0r0,-527","w":262},"m":{"d":"174,-413v61,-50,112,-75,168,-75v59,0,97,26,112,78v61,-52,115,-78,172,-78v101,0,118,64,118,174r0,228r71,0r0,86r-162,0r0,-323v0,-59,-20,-87,-61,-87v-43,0,-85,25,-131,75r0,249r71,0r0,86r-162,0r0,-322v0,-60,-20,-88,-62,-88v-43,0,-84,25,-130,75r0,249r71,0r0,86r-232,0r0,-86r71,0r0,-321r-71,0r0,-81r157,0r0,75","w":826},"n":{"d":"88,-86r0,-321r-69,0r0,-81r153,0r0,75v61,-50,113,-76,169,-76v103,0,117,66,117,175r0,228r72,0r0,86r-160,0r0,-278v0,-87,-2,-132,-62,-132v-44,0,-85,25,-132,75r0,249r72,0r0,86r-229,0r0,-86r69,0","w":542},"o":{"d":"521,-243v0,156,-102,257,-245,257v-143,0,-244,-100,-244,-257v0,-157,101,-257,244,-257v143,0,245,101,245,257xm276,-76v89,0,147,-60,147,-168v0,-107,-56,-168,-147,-168v-90,0,-147,61,-147,168v0,107,59,168,147,168","w":553},"p":{"d":"171,-415v45,-42,95,-73,166,-73v128,0,219,96,219,251v0,155,-91,251,-219,251v-62,0,-111,-23,-163,-72r0,135r93,0r0,85r-252,0r0,-85r70,0r0,-484r-70,0r0,-81r156,0r0,73xm317,-73v88,0,145,-61,145,-166v0,-105,-57,-166,-145,-166v-87,0,-143,60,-143,166v0,105,62,166,143,166","w":590},"q":{"d":"273,-73v81,0,143,-62,143,-166v0,-106,-56,-166,-143,-166v-88,0,-145,61,-145,166v0,104,57,166,145,166xm575,77r0,85r-252,0r0,-85r93,0r0,-135v-143,149,-382,56,-382,-179v0,-155,91,-252,219,-252v63,0,113,24,166,74r0,-73r156,0r0,81r-70,0r0,484r70,0","w":590},"r":{"d":"88,-86r0,-321r-69,0r0,-81r153,0r0,96v42,-86,88,-112,192,-104r0,94v-132,-15,-191,47,-188,187r0,129r87,0r0,86r-244,0r0,-86r69,0","w":360},"s":{"d":"41,0r0,-165r78,0v7,64,55,102,127,102v59,0,95,-30,95,-67v0,-58,-106,-70,-164,-84v-94,-23,-138,-64,-138,-140v0,-81,71,-146,170,-146v51,0,95,17,130,49r0,-37r75,0r0,159r-75,0v-5,-58,-54,-97,-125,-97v-52,0,-84,25,-84,63v0,62,104,67,162,80v93,21,138,65,138,139v0,93,-69,158,-179,158v-52,0,-98,-16,-132,-47r0,33r-78,0","w":466},"t":{"d":"166,-135v-6,75,44,70,91,48r0,85v-26,11,-52,16,-77,16v-90,0,-102,-47,-102,-134r0,-287r-64,0r0,-81r64,0r0,-65r88,-73r0,138r91,0r0,81r-91,0r0,272","w":273},"u":{"d":"453,-488r0,402r70,0r0,86r-154,0r0,-62v-61,50,-112,76,-168,76v-103,0,-118,-66,-118,-175r0,-246r-72,0r0,-81r160,0r0,302v0,80,5,121,63,121v44,0,85,-25,132,-75r0,-267r-75,0r0,-81r162,0","w":539},"v":{"d":"200,0r-148,-407r-71,0r0,-81r219,0r0,81r-54,0r99,277r107,-277r-68,0r0,-81r216,0r0,81r-68,0r-156,407r-76,0","w":486},"w":{"d":"486,-488r0,81r-43,0r83,272r89,-272r-52,0r0,-81r185,0r0,81r-49,0r-148,407r-70,0r-110,-354r-118,354r-69,0r-132,-407r-53,0r0,-81r189,0r0,81r-43,0r83,272r89,-272r-52,0r0,-81r221,0","w":752},"x":{"d":"2,0r0,-86r67,0r131,-156r-148,-165r-40,0r0,-81r204,0r0,79r-56,0r95,106r89,-106r-62,0r0,-79r192,0r0,81r-42,0r-128,155r149,166r43,0r0,86r-204,0r0,-84r54,0r-97,-108r-91,108r59,0r0,84r-215,0","w":505},"y":{"d":"53,162r0,-81r116,0r37,-96r-156,-392r-55,0r0,-81r205,0r0,81r-56,0r108,272r105,-272r-57,0r0,-81r195,0r0,81r-57,0r-219,569r-166,0","w":491},"z":{"d":"26,0r0,-95r300,-318r-199,0r0,105r-81,0r0,-180r386,0r0,93r-299,315r213,0r0,-103r86,0r0,183r-406,0","w":478},"{":{"d":"423,-648v-91,-3,-119,17,-119,112r0,118v0,93,-17,138,-98,159v82,21,98,66,98,159r0,118v-4,93,26,115,119,112r0,72v-63,1,-118,-4,-154,-24v-68,-38,-49,-167,-49,-270v0,-103,-41,-138,-138,-131r0,-73v97,7,138,-26,138,-130v0,-103,-18,-233,49,-270v36,-20,89,-26,154,-25r0,73"},"|":{"d":"287,-764r0,1000r-73,0r0,-1000r73,0"},"}":{"d":"232,-696v68,38,49,167,49,270v0,104,41,137,138,130r0,73v-98,-7,-138,28,-138,131v0,103,18,232,-49,270v-36,20,-91,25,-154,24r0,-72v91,3,119,-19,119,-113r0,-117v0,-93,17,-138,98,-159v-81,-21,-98,-66,-98,-159r0,-118v3,-93,-27,-115,-119,-112r0,-73v64,-1,119,5,154,25"},"~":{"d":"276,-366v103,0,189,66,282,66v62,0,120,-27,189,-76r0,76v-66,46,-127,69,-190,69v-99,-1,-182,-66,-282,-66v-59,0,-117,27,-188,77r0,-76v69,-47,131,-70,189,-70","w":833},"\u00a1":{"d":"193,-694r0,122r-111,0r0,-122r111,0xm163,-507r21,287r0,220r-93,0r0,-220r21,-287r51,0","w":275},"\u00a2":{"d":"162,-113r102,-312v-97,-4,-158,69,-158,175v0,64,20,112,56,137xm386,-312v-15,-49,-37,-79,-70,-99r-105,324v95,24,151,-15,198,-92r66,34v-42,109,-159,176,-289,136r-45,138r-58,0r51,-159v-73,-39,-113,-116,-113,-219v0,-167,109,-274,267,-248r41,-127r55,0r-46,146v15,10,29,21,42,31r0,-43r74,0r0,178r-68,0","w":495},"\u00a3":{"d":"23,-308r0,-76r102,0v-26,-62,-39,-111,-39,-150v0,-105,71,-172,182,-172v115,0,179,68,174,191r-88,0v0,-77,-29,-116,-85,-116v-52,0,-84,31,-84,84v0,39,16,92,43,163r126,0r0,76r-100,0v13,77,15,115,-4,180v41,27,73,42,100,42v45,1,68,-37,66,-99r62,0v-1,132,-41,197,-124,197v-49,0,-90,-21,-134,-61v-34,42,-67,64,-111,64v-59,0,-102,-45,-102,-103v0,-85,107,-122,175,-74v1,-54,-8,-94,-25,-146r-134,0xm169,-93v-23,-22,-43,-33,-64,-33v-23,0,-39,15,-39,36v0,21,18,38,43,38v24,0,43,-13,60,-41","w":495},"\u2044":{"d":"-167,14r433,-720r67,0r-433,720r-67,0","w":167},"\u00a5":{"d":"139,0r0,-90r91,0r0,-220r-213,0r0,-56r182,0r-49,-74r-133,0r0,-55r97,0r-74,-114r-84,0r0,-85r271,0r0,87r-77,0r135,212r139,-212r-90,0r0,-87r266,0r0,85r-85,0r-75,114r99,0r0,55r-136,0r-49,74r185,0r0,56r-216,0r0,220r91,0r0,90r-275,0","w":557},"\u0192":{"d":"454,-641v-65,-38,-109,-12,-124,76r-19,109r98,0r0,81r-112,0r-31,190v-39,253,-63,383,-262,318r16,-83v96,51,115,-3,139,-146r46,-279r-110,0r0,-81r118,0r23,-112v27,-155,104,-206,234,-152","w":495},"\u00a7":{"d":"418,-330v37,39,56,75,56,110v0,62,-52,114,-131,118v31,32,46,66,46,106v0,77,-50,112,-154,112r-131,0r0,-152r61,0r0,99v71,1,149,8,149,-62v0,-29,-15,-53,-44,-82r-180,-182v-37,-37,-56,-76,-56,-111v0,-64,57,-118,139,-117v-23,-27,-35,-57,-35,-92v0,-77,51,-112,154,-112r118,0r0,152r-60,0r0,-99v-69,-1,-137,-4,-137,62v0,31,17,54,44,82xm341,-157v30,0,54,-25,54,-54v0,-37,-32,-78,-90,-135v-58,-57,-98,-89,-134,-89v-30,0,-54,24,-54,54v0,37,31,77,89,134v58,57,99,90,135,90","w":509},"\u00a4":{"d":"179,-595v71,-56,178,-56,249,0r100,-100r40,39r-100,101v53,70,54,175,0,246r100,100r-40,40r-100,-100v-67,54,-180,57,-249,0r-100,100r-40,-40r101,-100v-49,-56,-57,-183,0,-246r-101,-101r40,-39xm452,-433v0,-81,-66,-148,-148,-148v-82,0,-148,67,-148,148v0,82,66,149,148,149v82,0,148,-67,148,-149","w":606},"'":{"d":"112,-701r0,271r-68,0r0,-271r68,0","w":155},"\u201c":{"d":"180,-567r0,123r-112,0r0,-123v0,-88,37,-134,114,-139r0,56v-48,9,-56,32,-54,83r52,0xm363,-567r0,123r-112,0r0,-123v0,-88,37,-134,114,-139r0,56v-48,9,-56,32,-54,83r52,0","w":437},"\u00ab":{"d":"248,-399r-126,152r126,153r-88,0r-128,-153r128,-152r88,0xm410,-399r-126,152r126,153r-88,0r-128,-153r128,-152r88,0","w":440},"\u2039":{"d":"248,-399r-126,152r126,153r-88,0r-128,-153r128,-152r88,0","w":278},"\u203a":{"d":"30,-94r126,-153r-126,-152r88,0r127,152r-127,153r-88,0","w":278},"\ufb01":{"d":"13,0r0,-86r74,0r0,-321r-74,0r0,-81r74,0v-6,-123,15,-218,118,-218v72,0,114,40,121,118r-79,11v-7,-35,-15,-51,-38,-51v-41,-10,-33,86,-34,140r281,0r0,402r71,0r0,86r-229,0r0,-86r70,0r0,-321r-193,0r0,321r81,0r0,86r-243,0xm347,-637v0,-31,26,-57,58,-57v31,0,57,26,57,57v0,33,-25,58,-57,58v-33,0,-58,-25,-58,-58","w":542},"\ufb02":{"d":"13,0r0,-86r74,0r0,-321r-74,0r0,-81r74,0v-5,-125,13,-218,123,-218v27,0,53,5,80,14r168,-2r0,608r72,0r0,86r-230,0r0,-86r70,0r0,-530r-94,0v-61,-37,-109,-20,-101,81r0,47r81,0r0,81r-81,0r0,321r81,0r0,86r-243,0","w":542},"\u2013":{"d":"500,-285r0,72r-500,0r0,-72r500,0"},"\u2020":{"d":"219,116r0,-499r-129,0r0,51r-56,0r0,-177r56,0r0,61r129,0r0,-191r-61,0r0,-55r192,0r0,55r-60,0r0,191r129,0r0,-61r55,0r0,177r-55,0r0,-51r-129,0r0,499r-71,0","w":509},"\u2021":{"d":"290,-156r129,0r0,-61r55,0r0,176r-55,0r0,-50r-129,0r0,151r60,0r0,56r-192,0r0,-56r61,0r0,-151r-129,0r0,50r-56,0r0,-176r56,0r0,61r129,0r0,-268r-129,0r0,51r-56,0r0,-177r56,0r0,61r129,0r0,-150r-61,0r0,-55r192,0r0,55r-60,0r0,150r129,0r0,-61r55,0r0,177r-55,0r0,-51r-129,0r0,268","w":509},"\u00b7":{"d":"60,-345v0,-34,30,-64,64,-64v34,0,63,30,63,64v0,36,-27,63,-63,63v-36,0,-64,-27,-64,-63","w":248},"\u00b6":{"d":"468,-680r-59,0r0,680r-54,0r0,-680r-87,0r0,680r-54,0r0,-382v-113,-5,-182,-73,-182,-170v0,-100,74,-170,192,-170r244,0r0,42"},"\u2022":{"d":"150,-372v0,-80,65,-144,145,-144v79,0,144,64,144,144v0,79,-65,145,-145,145v-80,0,-144,-65,-144,-145","w":590},"\u201a":{"d":"62,0r0,-123r113,0r0,123v0,88,-38,134,-115,139r0,-55v47,-9,57,-33,55,-84r-53,0","w":248},"\u201e":{"d":"66,0r0,-123r112,0r0,123v0,88,-37,134,-114,139r0,-55v48,-9,56,-33,54,-84r-52,0xm249,0r0,-123r112,0r0,123v0,88,-37,134,-114,139r0,-55v48,-9,56,-33,54,-84r-52,0","w":437},"\u201d":{"d":"76,-572r0,-122r112,0r0,122v0,88,-38,135,-115,140r0,-56v47,-9,57,-33,55,-84r-52,0xm259,-572r0,-122r112,0r0,122v0,88,-38,135,-115,140r0,-56v47,-9,57,-33,55,-84r-52,0","w":437},"\u00bb":{"d":"30,-94r126,-153r-126,-152r88,0r128,152r-128,153r-88,0xm192,-94r126,-153r-126,-152r88,0r128,152r-128,153r-88,0","w":440},"\u2026":{"d":"109,0r0,-123r116,0r0,123r-116,0xm442,0r0,-123r116,0r0,123r-116,0xm776,0r0,-123r116,0r0,123r-116,0","w":1000},"\u2030":{"d":"602,-706r-424,720r-68,0r424,-720r68,0xm161,-366v36,0,65,-49,65,-139v0,-90,-28,-138,-65,-138v-37,0,-64,48,-64,138v0,91,29,139,64,139xm550,-49v36,0,65,-48,65,-138v0,-90,-28,-139,-65,-139v-37,0,-65,49,-65,139v0,91,30,138,65,138xm550,14v-79,0,-135,-73,-135,-201v0,-129,56,-202,135,-202v78,0,135,73,135,202v0,129,-57,201,-135,201xm162,-303v-79,0,-136,-74,-136,-202v0,-129,57,-201,136,-201v78,0,135,72,135,201v0,129,-57,202,-135,202xm872,14v-79,0,-135,-73,-135,-201v0,-129,56,-202,135,-202v78,0,135,73,135,202v0,129,-57,201,-135,201xm872,-49v36,0,65,-48,65,-138v0,-90,-28,-139,-65,-139v-37,0,-65,49,-65,139v0,91,30,138,65,138","w":1035},"\u00bf":{"d":"322,-692r0,123r-111,0r0,-123r111,0xm305,-280v-89,-26,-169,28,-169,110v0,61,44,107,110,107v70,0,112,-51,109,-136r90,0v4,134,-75,212,-201,213v-121,0,-202,-82,-202,-183v0,-109,68,-181,188,-194r9,-132r55,0","w":468},"`":{"d":"320,-554r-59,0r-139,-170r98,0"},"\u00b4":{"d":"180,-554r100,-170r98,0r-139,170r-59,0"},"\u02c6":{"d":"106,-554r96,-170r96,0r96,170r-60,0r-84,-112r-85,112r-59,0"},"\u02dc":{"d":"393,-690v-17,79,-57,116,-128,97v-41,-11,-98,-36,-115,16r-43,0v15,-75,56,-114,123,-95v43,11,104,39,120,-18r43,0"},"\u00af":{"d":"118,-600r0,-68r264,0r0,68r-264,0"},"\u02d8":{"d":"108,-707r53,0v4,47,31,68,89,68v58,0,86,-21,89,-68r53,0v-7,95,-50,136,-142,136v-91,0,-135,-42,-142,-136"},"\u02d9":{"d":"193,-634v0,-31,26,-58,57,-58v31,0,58,27,58,58v0,33,-25,58,-58,58v-33,0,-57,-25,-57,-58"},"\u00a8":{"d":"101,-634v0,-29,25,-55,55,-55v30,0,55,25,55,55v0,32,-24,56,-55,56v-31,0,-55,-24,-55,-56xm288,-634v0,-29,26,-55,56,-55v30,0,54,25,54,55v0,32,-23,56,-54,56v-31,0,-56,-25,-56,-56"},"\u02da":{"d":"127,-669v0,-69,54,-123,123,-123v69,0,124,54,124,123v0,69,-55,124,-124,124v-69,0,-123,-55,-123,-124xm184,-668v0,37,29,66,66,66v36,0,66,-29,66,-66v0,-36,-30,-66,-66,-66v-37,0,-66,30,-66,66"},"\u00b8":{"d":"124,208r0,-49v61,15,102,19,121,19v39,0,58,-12,58,-40v0,-38,-44,-46,-91,-41r0,-97r38,0r0,50v77,-3,124,26,123,88v-2,104,-143,108,-249,70"},"\u02dd":{"d":"152,-554r67,-171r87,0r-107,171r-47,0xm278,-554r81,-171r86,0r-120,171r-47,0"},"\u02db":{"d":"324,0v-43,35,-65,67,-65,100v0,40,42,35,81,35r0,81v-83,5,-152,-12,-152,-82v0,-47,32,-85,91,-134r45,0"},"\u02c7":{"d":"106,-724r59,0r85,111r84,-111r60,0r-96,170r-96,0"},"\u2014":{"d":"0,-213r0,-72r1000,0r0,72r-1000,0","w":1000},"\u00c6":{"d":"298,-399r157,0r0,-217r-43,0xm348,0r0,-90r107,0r0,-226r-202,0r-120,226r76,0r0,90r-254,0r0,-90r78,0r278,-519r-98,0r0,-85r685,0r0,206r-83,0r0,-121r-261,0r0,210r228,0r0,83r-228,0r0,226r261,0r0,-132r83,0r0,222r-550,0","w":947},"\u00aa":{"d":"258,-353r0,-32v-76,72,-236,50,-236,-67v0,-67,52,-112,130,-112v27,0,62,9,104,25v4,-69,-16,-110,-77,-110v-39,0,-66,15,-89,44r-64,-15v24,-53,80,-83,158,-83v104,0,138,47,138,142r0,148r55,0r0,60r-119,0xm258,-448r0,-25v-34,-19,-61,-31,-94,-31v-85,0,-94,98,-10,98v31,0,64,-15,104,-42","w":385},"\u0141":{"d":"288,-694r0,85r-82,0r0,207r146,-99r0,84r-146,100r0,227r250,0r0,-235r83,0r0,325r-515,0r0,-90r82,0r0,-182r-104,69r0,-84r104,-70r0,-252r-82,0r0,-85r264,0","w":595},"\u00d8":{"d":"112,-112v-54,-67,-78,-141,-78,-234v0,-213,147,-360,353,-360v78,0,144,19,199,61r65,-74r53,47r-66,74v63,73,91,153,91,252v0,211,-143,360,-347,360v-87,0,-157,-23,-218,-73r-70,81r-56,-50xm183,-189r336,-381v-168,-110,-378,2,-378,223v0,65,11,115,42,158xm231,-135v38,34,85,56,150,56v135,0,241,-105,241,-268v0,-68,-15,-123,-52,-172","w":764},"\u0152":{"d":"146,-350v-2,178,112,278,309,263r50,0r0,-525v-96,1,-179,-5,-245,35v-75,45,-114,122,-114,227xm455,0v-112,0,-195,-6,-255,-40v-99,-55,-160,-169,-160,-307v0,-138,57,-245,161,-305v66,-38,150,-42,254,-42r512,0r0,206r-83,0r0,-121r-280,0r0,211r247,0r0,83r-247,0r0,225r280,0r0,-132r83,0r0,222r-512,0","w":1010},"\u00ba":{"d":"391,-523v0,109,-77,180,-184,180v-107,0,-183,-70,-183,-180v0,-110,76,-180,183,-180v107,0,184,71,184,180xm207,-406v67,0,110,-42,110,-118v0,-75,-42,-117,-110,-117v-67,0,-110,42,-110,117v0,75,44,118,110,118","w":415},"\u00e6":{"d":"347,-135r0,-37v-44,-26,-80,-44,-125,-44v-57,0,-93,30,-93,72v0,38,31,67,82,67v50,0,95,-19,136,-58xm438,-290r259,0v-9,-84,-55,-129,-130,-129v-75,0,-123,47,-129,129xm406,-429v44,-46,101,-71,165,-71v139,0,223,101,223,282r-360,0v0,85,59,141,143,141v61,0,113,-30,146,-85r73,40v-49,92,-122,136,-225,136v-78,0,-142,-33,-187,-98v-55,66,-117,98,-191,98v-96,0,-161,-63,-161,-155v0,-96,69,-160,173,-160v37,0,83,12,139,35v5,-96,-21,-157,-103,-157v-50,0,-87,20,-118,63r-84,-22v30,-74,105,-118,208,-118v77,0,131,25,159,71","w":829},"\u0131":{"d":"176,-86r72,0r0,86r-229,0r0,-86r69,0r0,-321r-69,0r0,-81r157,0r0,402","w":262},"\u0142":{"d":"90,-295r-90,61r0,-70r90,-61r0,-248r-69,0r0,-81r157,0r0,288r90,-61r0,70r-90,61r0,250r72,0r0,86r-229,0r0,-86r69,0r0,-209","w":271},"\u00f8":{"d":"406,-334r-229,221v99,83,247,22,247,-131v0,-34,-4,-63,-18,-90xm144,-159r228,-221v-28,-23,-58,-32,-96,-32v-90,0,-147,61,-147,168v0,30,5,59,15,85xm476,-402v27,39,45,90,45,159v0,156,-101,257,-245,257v-65,0,-117,-19,-167,-62r-66,63r-35,-44r65,-62v-28,-44,-41,-93,-41,-152v0,-156,101,-257,244,-257v63,0,114,17,162,57r57,-56r39,40","w":553},"\u0153":{"d":"278,-76v88,0,146,-60,146,-168v0,-107,-56,-168,-146,-168v-89,0,-145,61,-145,168v0,107,58,168,145,168xm527,-290r268,0v-9,-84,-57,-129,-134,-129v-77,0,-128,47,-134,129xm471,-77v-45,59,-113,91,-193,91v-142,0,-241,-101,-241,-257v0,-157,99,-257,241,-257v84,0,146,30,193,93v44,-62,108,-93,191,-93v145,0,232,101,232,282r-376,0v2,85,62,142,150,142v63,0,119,-32,152,-86r75,40v-72,158,-317,187,-424,45","w":928},"\u00df":{"d":"79,-512v0,-130,50,-194,174,-194v104,0,171,61,171,150v0,57,-30,93,-93,114v104,7,168,86,168,211v0,154,-91,253,-233,234r0,-88v93,4,135,-45,136,-147v1,-104,-56,-152,-167,-148r0,-84v67,-3,102,-33,102,-84v0,-48,-32,-80,-87,-80v-64,0,-82,42,-82,122r0,420r54,0r0,86r-217,0r0,-86r74,0r0,-426","w":538},"\u00c1":{"d":"-28,0r0,-90r80,0r181,-519r-90,0r0,-85r347,0r0,85r-85,0r179,519r75,0r0,90r-260,0r0,-90r84,0r-54,-156r-234,0r-53,156r78,0r0,90r-248,0xm225,-330r174,0r-86,-258xm246,-760r100,-170r98,0r-139,170r-59,0","w":632},"\u00c2":{"d":"-28,0r0,-90r80,0r181,-519r-90,0r0,-85r347,0r0,85r-85,0r179,519r75,0r0,90r-260,0r0,-90r84,0r-54,-156r-234,0r-53,156r78,0r0,90r-248,0xm225,-330r174,0r-86,-258xm172,-760r96,-170r96,0r96,170r-60,0r-84,-112r-85,112r-59,0","w":632},"\u00c4":{"d":"-28,0r0,-90r80,0r181,-519r-90,0r0,-85r347,0r0,85r-85,0r179,519r75,0r0,90r-260,0r0,-90r84,0r-54,-156r-234,0r-53,156r78,0r0,90r-248,0xm225,-330r174,0r-86,-258xm167,-840v0,-29,25,-55,55,-55v30,0,55,25,55,55v0,32,-24,56,-55,56v-31,0,-55,-24,-55,-56xm354,-840v0,-29,26,-55,56,-55v30,0,54,25,54,55v0,32,-23,56,-54,56v-31,0,-56,-25,-56,-56","w":632},"\u00c0":{"d":"-28,0r0,-90r80,0r181,-519r-90,0r0,-85r347,0r0,85r-85,0r179,519r75,0r0,90r-260,0r0,-90r84,0r-54,-156r-234,0r-53,156r78,0r0,90r-248,0xm225,-330r174,0r-86,-258xm386,-760r-59,0r-139,-170r98,0","w":632},"\u00c5":{"d":"-28,0r0,-90r80,0r181,-519r-90,0r0,-85r347,0r0,85r-85,0r179,519r75,0r0,90r-260,0r0,-90r84,0r-54,-156r-234,0r-53,156r78,0r0,90r-248,0xm225,-330r174,0r-86,-258xm256,-845v0,33,28,61,61,61v33,0,60,-28,60,-61v0,-33,-27,-60,-60,-60v-33,0,-61,27,-61,60xm198,-845v0,-66,52,-118,118,-118v66,0,119,52,119,118v0,66,-53,119,-119,119v-66,0,-118,-53,-118,-119","w":632},"\u00c3":{"d":"-28,0r0,-90r80,0r181,-519r-90,0r0,-85r347,0r0,85r-85,0r179,519r75,0r0,90r-260,0r0,-90r84,0r-54,-156r-234,0r-53,156r78,0r0,90r-248,0xm225,-330r174,0r-86,-258xm459,-896v-17,79,-57,116,-128,97v-41,-11,-98,-36,-115,16r-43,0v15,-75,56,-114,123,-95v43,11,104,39,120,-18r43,0","w":632},"\u00c7":{"d":"599,-471v-41,-95,-112,-143,-210,-143v-144,0,-248,104,-248,267v0,164,105,268,240,268v110,0,208,-76,247,-201r86,51v-46,152,-171,243,-332,243v-204,0,-348,-149,-348,-360v0,-214,149,-360,348,-360v101,0,170,30,224,101r0,-89r85,0r0,223r-92,0xm250,208r0,-49v61,15,102,19,121,19v39,0,58,-12,58,-40v0,-38,-44,-46,-91,-41r0,-97r38,0r0,50v77,-3,124,26,123,88v-2,104,-143,108,-249,70","w":752},"\u00c9":{"d":"503,-90r0,-132r84,0r0,222r-567,0r0,-90r82,0r0,-519r-82,0r0,-85r567,0r0,206r-84,0r0,-121r-302,0r0,211r270,0r0,83r-270,0r0,225r302,0xm256,-760r100,-170r98,0r-139,170r-59,0","w":635},"\u00ca":{"d":"503,-90r0,-132r84,0r0,222r-567,0r0,-90r82,0r0,-519r-82,0r0,-85r567,0r0,206r-84,0r0,-121r-302,0r0,211r270,0r0,83r-270,0r0,225r302,0xm182,-760r96,-170r96,0r96,170r-60,0r-84,-112r-85,112r-59,0","w":635},"\u00cb":{"d":"503,-90r0,-132r84,0r0,222r-567,0r0,-90r82,0r0,-519r-82,0r0,-85r567,0r0,206r-84,0r0,-121r-302,0r0,211r270,0r0,83r-270,0r0,225r302,0xm177,-840v0,-29,25,-55,55,-55v30,0,55,25,55,55v0,32,-24,56,-55,56v-31,0,-55,-24,-55,-56xm364,-840v0,-29,26,-55,56,-55v30,0,54,25,54,55v0,32,-23,56,-54,56v-31,0,-56,-25,-56,-56","w":635},"\u00c8":{"d":"503,-90r0,-132r84,0r0,222r-567,0r0,-90r82,0r0,-519r-82,0r0,-85r567,0r0,206r-84,0r0,-121r-302,0r0,211r270,0r0,83r-270,0r0,225r302,0xm396,-760r-59,0r-139,-170r98,0","w":635},"\u00cd":{"d":"284,-694r0,85r-83,0r0,519r83,0r0,90r-264,0r0,-90r82,0r0,-519r-82,0r0,-85r264,0xm82,-760r100,-170r98,0r-139,170r-59,0","w":303},"\u00ce":{"d":"284,-694r0,85r-83,0r0,519r83,0r0,90r-264,0r0,-90r82,0r0,-519r-82,0r0,-85r264,0xm8,-760r96,-170r96,0r96,170r-60,0r-84,-112r-85,112r-59,0","w":303},"\u00cf":{"d":"284,-694r0,85r-83,0r0,519r83,0r0,90r-264,0r0,-90r82,0r0,-519r-82,0r0,-85r264,0xm3,-840v0,-29,25,-55,55,-55v30,0,55,25,55,55v0,32,-24,56,-55,56v-31,0,-55,-24,-55,-56xm190,-840v0,-29,26,-55,56,-55v30,0,54,25,54,55v0,32,-23,56,-54,56v-31,0,-56,-25,-56,-56","w":303},"\u00cc":{"d":"284,-694r0,85r-83,0r0,519r83,0r0,90r-264,0r0,-90r82,0r0,-519r-82,0r0,-85r264,0xm222,-760r-59,0r-139,-170r98,0","w":303},"\u00d1":{"d":"191,-582r0,492r85,0r0,90r-259,0r0,-90r85,0r0,-519r-85,0r0,-85r221,0r314,541r0,-456r-85,0r0,-85r274,0r0,85r-100,0r0,609r-113,0xm517,-896v-17,79,-57,116,-128,97v-41,-11,-98,-36,-115,16r-43,0v15,-75,56,-114,123,-95v43,11,104,39,120,-18r43,0","w":744},"\u00d3":{"d":"382,-706v206,0,347,149,347,360v0,211,-143,360,-347,360v-204,0,-348,-149,-348,-360v0,-214,150,-360,348,-360xm622,-347v0,-160,-103,-266,-241,-266v-133,0,-240,103,-240,266v0,164,105,268,240,268v135,0,241,-104,241,-268xm312,-760r100,-170r98,0r-139,170r-59,0","w":764},"\u00d4":{"d":"382,-706v206,0,347,149,347,360v0,211,-143,360,-347,360v-204,0,-348,-149,-348,-360v0,-214,150,-360,348,-360xm622,-347v0,-160,-103,-266,-241,-266v-133,0,-240,103,-240,266v0,164,105,268,240,268v135,0,241,-104,241,-268xm238,-760r96,-170r96,0r96,170r-60,0r-84,-112r-85,112r-59,0","w":764},"\u00d6":{"d":"382,-706v206,0,347,149,347,360v0,211,-143,360,-347,360v-204,0,-348,-149,-348,-360v0,-214,150,-360,348,-360xm622,-347v0,-160,-103,-266,-241,-266v-133,0,-240,103,-240,266v0,164,105,268,240,268v135,0,241,-104,241,-268xm233,-840v0,-29,25,-55,55,-55v30,0,55,25,55,55v0,32,-24,56,-55,56v-31,0,-55,-24,-55,-56xm420,-840v0,-29,26,-55,56,-55v30,0,54,25,54,55v0,32,-23,56,-54,56v-31,0,-56,-25,-56,-56","w":764},"\u00d2":{"d":"382,-706v206,0,347,149,347,360v0,211,-143,360,-347,360v-204,0,-348,-149,-348,-360v0,-214,150,-360,348,-360xm622,-347v0,-160,-103,-266,-241,-266v-133,0,-240,103,-240,266v0,164,105,268,240,268v135,0,241,-104,241,-268xm452,-760r-59,0r-139,-170r98,0","w":764},"\u00d5":{"d":"382,-706v206,0,347,149,347,360v0,211,-143,360,-347,360v-204,0,-348,-149,-348,-360v0,-214,150,-360,348,-360xm622,-347v0,-160,-103,-266,-241,-266v-133,0,-240,103,-240,266v0,164,105,268,240,268v135,0,241,-104,241,-268xm525,-896v-17,79,-57,116,-128,97v-41,-11,-98,-36,-115,16r-43,0v15,-75,56,-114,123,-95v43,11,104,39,120,-18r43,0","w":764},"\u0160":{"d":"51,0r0,-238r88,0r0,62v36,67,89,101,152,101v68,0,114,-45,114,-109v0,-55,-31,-96,-90,-116r-123,-41v-94,-32,-142,-92,-142,-177v0,-109,81,-188,192,-188v58,0,111,20,152,58r0,-46r81,0r0,199r-82,0r0,-51v-40,-49,-91,-75,-142,-75v-62,0,-104,37,-104,94v0,96,133,112,207,141v100,38,151,99,151,197v0,122,-82,203,-213,203v-59,0,-108,-19,-153,-58r0,44r-88,0xm131,-930r59,0r85,111r84,-111r60,0r-96,170r-96,0","w":549},"\u00da":{"d":"97,-609r-85,0r0,-85r272,0r0,85r-84,0r0,371v0,108,45,161,147,161v104,0,151,-53,151,-161r0,-371r-85,0r0,-85r265,0r0,85r-84,0r0,322v0,205,-61,301,-249,301v-188,0,-248,-97,-248,-301r0,-322xm291,-760r100,-170r98,0r-139,170r-59,0","w":721},"\u00db":{"d":"97,-609r-85,0r0,-85r272,0r0,85r-84,0r0,371v0,108,45,161,147,161v104,0,151,-53,151,-161r0,-371r-85,0r0,-85r265,0r0,85r-84,0r0,322v0,205,-61,301,-249,301v-188,0,-248,-97,-248,-301r0,-322xm217,-760r96,-170r96,0r96,170r-60,0r-84,-112r-85,112r-59,0","w":721},"\u00dc":{"d":"97,-609r-85,0r0,-85r272,0r0,85r-84,0r0,371v0,108,45,161,147,161v104,0,151,-53,151,-161r0,-371r-85,0r0,-85r265,0r0,85r-84,0r0,322v0,205,-61,301,-249,301v-188,0,-248,-97,-248,-301r0,-322xm212,-840v0,-29,25,-55,55,-55v30,0,55,25,55,55v0,32,-24,56,-55,56v-31,0,-55,-24,-55,-56xm399,-840v0,-29,26,-55,56,-55v30,0,54,25,54,55v0,32,-23,56,-54,56v-31,0,-56,-25,-56,-56","w":721},"\u00d9":{"d":"97,-609r-85,0r0,-85r272,0r0,85r-84,0r0,371v0,108,45,161,147,161v104,0,151,-53,151,-161r0,-371r-85,0r0,-85r265,0r0,85r-84,0r0,322v0,205,-61,301,-249,301v-188,0,-248,-97,-248,-301r0,-322xm431,-760r-59,0r-139,-170r98,0","w":721},"\u0178":{"d":"29,-609r-84,0r0,-85r276,0r0,85r-75,0r131,206r135,-206r-87,0r0,-85r271,0r0,85r-85,0r-192,291r0,228r90,0r0,90r-281,0r0,-90r91,0r0,-228xm122,-840v0,-29,25,-55,55,-55v30,0,55,25,55,55v0,32,-24,56,-55,56v-31,0,-55,-24,-55,-56xm309,-840v0,-29,26,-55,56,-55v30,0,54,25,54,55v0,32,-23,56,-54,56v-31,0,-56,-25,-56,-56","w":542},"\u017d":{"d":"21,0r0,-88r353,-521r-250,0r0,121r-83,0r0,-206r456,0r0,85r-354,521r285,0r0,-130r84,0r0,218r-491,0xm128,-930r59,0r85,111r84,-111r60,0r-96,170r-96,0","w":544},"\u00e1":{"d":"344,0r0,-46v-49,40,-98,60,-155,60v-96,0,-160,-63,-160,-155v0,-96,69,-160,173,-160v37,0,83,12,139,35v5,-96,-21,-157,-103,-157v-52,0,-88,21,-118,63r-85,-22v31,-75,106,-118,210,-118v139,0,184,67,184,203r0,211r74,0r0,86r-159,0xm344,-136r0,-36v-45,-27,-82,-44,-125,-44v-57,0,-94,30,-94,72v0,38,32,68,80,68v41,0,86,-21,139,-60xm168,-554r100,-170r98,0r-139,170r-59,0","w":513},"\u00e2":{"d":"344,0r0,-46v-49,40,-98,60,-155,60v-96,0,-160,-63,-160,-155v0,-96,69,-160,173,-160v37,0,83,12,139,35v5,-96,-21,-157,-103,-157v-52,0,-88,21,-118,63r-85,-22v31,-75,106,-118,210,-118v139,0,184,67,184,203r0,211r74,0r0,86r-159,0xm344,-136r0,-36v-45,-27,-82,-44,-125,-44v-57,0,-94,30,-94,72v0,38,32,68,80,68v41,0,86,-21,139,-60xm94,-554r96,-170r96,0r96,170r-60,0r-84,-112r-85,112r-59,0","w":513},"\u00e4":{"d":"344,0r0,-46v-49,40,-98,60,-155,60v-96,0,-160,-63,-160,-155v0,-96,69,-160,173,-160v37,0,83,12,139,35v5,-96,-21,-157,-103,-157v-52,0,-88,21,-118,63r-85,-22v31,-75,106,-118,210,-118v139,0,184,67,184,203r0,211r74,0r0,86r-159,0xm344,-136r0,-36v-45,-27,-82,-44,-125,-44v-57,0,-94,30,-94,72v0,38,32,68,80,68v41,0,86,-21,139,-60xm89,-634v0,-29,25,-55,55,-55v30,0,55,25,55,55v0,32,-24,56,-55,56v-31,0,-55,-24,-55,-56xm276,-634v0,-29,26,-55,56,-55v30,0,54,25,54,55v0,32,-23,56,-54,56v-31,0,-56,-25,-56,-56","w":513},"\u00e0":{"d":"344,0r0,-46v-49,40,-98,60,-155,60v-96,0,-160,-63,-160,-155v0,-96,69,-160,173,-160v37,0,83,12,139,35v5,-96,-21,-157,-103,-157v-52,0,-88,21,-118,63r-85,-22v31,-75,106,-118,210,-118v139,0,184,67,184,203r0,211r74,0r0,86r-159,0xm344,-136r0,-36v-45,-27,-82,-44,-125,-44v-57,0,-94,30,-94,72v0,38,32,68,80,68v41,0,86,-21,139,-60xm308,-554r-59,0r-139,-170r98,0","w":513},"\u00e5":{"d":"344,0r0,-46v-49,40,-98,60,-155,60v-96,0,-160,-63,-160,-155v0,-96,69,-160,173,-160v37,0,83,12,139,35v5,-96,-21,-157,-103,-157v-52,0,-88,21,-118,63r-85,-22v31,-75,106,-118,210,-118v139,0,184,67,184,203r0,211r74,0r0,86r-159,0xm344,-136r0,-36v-45,-27,-82,-44,-125,-44v-57,0,-94,30,-94,72v0,38,32,68,80,68v41,0,86,-21,139,-60xm179,-652v0,33,27,61,60,61v33,0,61,-28,61,-61v0,-33,-28,-60,-61,-60v-33,0,-60,27,-60,60xm121,-652v0,-66,52,-118,118,-118v66,0,118,52,118,118v0,66,-52,119,-118,119v-66,0,-118,-53,-118,-119","w":513},"\u00e3":{"d":"344,0r0,-46v-49,40,-98,60,-155,60v-96,0,-160,-63,-160,-155v0,-96,69,-160,173,-160v37,0,83,12,139,35v5,-96,-21,-157,-103,-157v-52,0,-88,21,-118,63r-85,-22v31,-75,106,-118,210,-118v139,0,184,67,184,203r0,211r74,0r0,86r-159,0xm344,-136r0,-36v-45,-27,-82,-44,-125,-44v-57,0,-94,30,-94,72v0,38,32,68,80,68v41,0,86,-21,139,-60xm381,-690v-17,79,-57,116,-128,97v-41,-11,-98,-36,-115,16r-43,0v15,-75,56,-114,123,-95v43,11,104,39,120,-18r43,0","w":513},"\u00e7":{"d":"412,-306v-18,-72,-64,-109,-130,-109v-93,0,-151,64,-151,171v0,107,60,168,150,168v65,0,121,-35,154,-98r77,38v-37,92,-125,150,-231,150v-146,0,-249,-101,-249,-257v0,-215,229,-334,380,-202r0,-43r78,0r0,182r-78,0xm142,208r0,-49v61,15,102,19,121,19v39,0,58,-12,58,-40v0,-38,-44,-46,-91,-41r0,-97r38,0r0,50v77,-3,124,26,123,88v-2,104,-143,108,-249,70","w":535},"\u00e9":{"d":"138,-290r277,0v-10,-84,-59,-129,-139,-129v-80,0,-131,47,-138,129xm130,-218v2,85,63,142,153,142v64,0,121,-32,155,-86r77,40v-50,89,-130,136,-233,136v-151,0,-250,-100,-250,-257v0,-157,101,-257,244,-257v148,0,237,101,237,282r-383,0xm211,-554r100,-170r98,0r-139,170r-59,0","w":547},"\u00ea":{"d":"138,-290r277,0v-10,-84,-59,-129,-139,-129v-80,0,-131,47,-138,129xm130,-218v2,85,63,142,153,142v64,0,121,-32,155,-86r77,40v-50,89,-130,136,-233,136v-151,0,-250,-100,-250,-257v0,-157,101,-257,244,-257v148,0,237,101,237,282r-383,0xm137,-554r96,-170r96,0r96,170r-60,0r-84,-112r-85,112r-59,0","w":547},"\u00eb":{"d":"138,-290r277,0v-10,-84,-59,-129,-139,-129v-80,0,-131,47,-138,129xm130,-218v2,85,63,142,153,142v64,0,121,-32,155,-86r77,40v-50,89,-130,136,-233,136v-151,0,-250,-100,-250,-257v0,-157,101,-257,244,-257v148,0,237,101,237,282r-383,0xm132,-634v0,-29,25,-55,55,-55v30,0,55,25,55,55v0,32,-24,56,-55,56v-31,0,-55,-24,-55,-56xm319,-634v0,-29,26,-55,56,-55v30,0,54,25,54,55v0,32,-23,56,-54,56v-31,0,-56,-25,-56,-56","w":547},"\u00e8":{"d":"138,-290r277,0v-10,-84,-59,-129,-139,-129v-80,0,-131,47,-138,129xm130,-218v2,85,63,142,153,142v64,0,121,-32,155,-86r77,40v-50,89,-130,136,-233,136v-151,0,-250,-100,-250,-257v0,-157,101,-257,244,-257v148,0,237,101,237,282r-383,0xm351,-554r-59,0r-139,-170r98,0","w":547},"\u00ed":{"d":"176,-86r72,0r0,86r-229,0r0,-86r69,0r0,-321r-69,0r0,-81r157,0r0,402xm48,-554r100,-170r98,0r-139,170r-59,0","w":262},"\u00ee":{"d":"176,-86r72,0r0,86r-229,0r0,-86r69,0r0,-321r-69,0r0,-81r157,0r0,402xm-26,-554r96,-170r96,0r96,170r-60,0r-84,-112r-85,112r-59,0","w":262},"\u00ef":{"d":"176,-86r72,0r0,86r-229,0r0,-86r69,0r0,-321r-69,0r0,-81r157,0r0,402xm-31,-634v0,-29,25,-55,55,-55v30,0,55,25,55,55v0,32,-24,56,-55,56v-31,0,-55,-24,-55,-56xm156,-634v0,-29,26,-55,56,-55v30,0,54,25,54,55v0,32,-23,56,-54,56v-31,0,-56,-25,-56,-56","w":262},"\u00ec":{"d":"176,-86r72,0r0,86r-229,0r0,-86r69,0r0,-321r-69,0r0,-81r157,0r0,402xm188,-554r-59,0r-139,-170r98,0","w":262},"\u00f1":{"d":"88,-86r0,-321r-69,0r0,-81r153,0r0,75v61,-50,113,-76,169,-76v103,0,117,66,117,175r0,228r72,0r0,86r-160,0r0,-278v0,-87,-2,-132,-62,-132v-44,0,-85,25,-132,75r0,249r72,0r0,86r-229,0r0,-86r69,0xm414,-690v-17,79,-57,116,-128,97v-41,-11,-98,-36,-115,16r-43,0v15,-75,56,-114,123,-95v43,11,104,39,120,-18r43,0","w":542},"\u00f3":{"d":"521,-243v0,156,-102,257,-245,257v-143,0,-244,-100,-244,-257v0,-157,101,-257,244,-257v143,0,245,101,245,257xm276,-76v89,0,147,-60,147,-168v0,-107,-56,-168,-147,-168v-90,0,-147,61,-147,168v0,107,59,168,147,168xm207,-554r100,-170r98,0r-139,170r-59,0","w":553},"\u00f4":{"d":"521,-243v0,156,-102,257,-245,257v-143,0,-244,-100,-244,-257v0,-157,101,-257,244,-257v143,0,245,101,245,257xm276,-76v89,0,147,-60,147,-168v0,-107,-56,-168,-147,-168v-90,0,-147,61,-147,168v0,107,59,168,147,168xm133,-554r96,-170r96,0r96,170r-60,0r-84,-112r-85,112r-59,0","w":553},"\u00f6":{"d":"521,-243v0,156,-102,257,-245,257v-143,0,-244,-100,-244,-257v0,-157,101,-257,244,-257v143,0,245,101,245,257xm276,-76v89,0,147,-60,147,-168v0,-107,-56,-168,-147,-168v-90,0,-147,61,-147,168v0,107,59,168,147,168xm128,-634v0,-29,25,-55,55,-55v30,0,55,25,55,55v0,32,-24,56,-55,56v-31,0,-55,-24,-55,-56xm315,-634v0,-29,26,-55,56,-55v30,0,54,25,54,55v0,32,-23,56,-54,56v-31,0,-56,-25,-56,-56","w":553},"\u00f2":{"d":"521,-243v0,156,-102,257,-245,257v-143,0,-244,-100,-244,-257v0,-157,101,-257,244,-257v143,0,245,101,245,257xm276,-76v89,0,147,-60,147,-168v0,-107,-56,-168,-147,-168v-90,0,-147,61,-147,168v0,107,59,168,147,168xm347,-554r-59,0r-139,-170r98,0","w":553},"\u00f5":{"d":"521,-243v0,156,-102,257,-245,257v-143,0,-244,-100,-244,-257v0,-157,101,-257,244,-257v143,0,245,101,245,257xm276,-76v89,0,147,-60,147,-168v0,-107,-56,-168,-147,-168v-90,0,-147,61,-147,168v0,107,59,168,147,168xm420,-690v-17,79,-57,116,-128,97v-41,-11,-98,-36,-115,16r-43,0v15,-75,56,-114,123,-95v43,11,104,39,120,-18r43,0","w":553},"\u0161":{"d":"41,0r0,-165r78,0v7,64,55,102,127,102v59,0,95,-30,95,-67v0,-58,-106,-70,-164,-84v-94,-23,-138,-64,-138,-140v0,-81,71,-146,170,-146v51,0,95,17,130,49r0,-37r75,0r0,159r-75,0v-5,-58,-54,-97,-125,-97v-52,0,-84,25,-84,63v0,62,104,67,162,80v93,21,138,65,138,139v0,93,-69,158,-179,158v-52,0,-98,-16,-132,-47r0,33r-78,0xm89,-724r59,0r85,111r84,-111r60,0r-96,170r-96,0","w":466},"\u00fa":{"d":"453,-488r0,402r70,0r0,86r-154,0r0,-62v-61,50,-112,76,-168,76v-103,0,-118,-66,-118,-175r0,-246r-72,0r0,-81r160,0r0,302v0,80,5,121,63,121v44,0,85,-25,132,-75r0,-267r-75,0r0,-81r162,0xm187,-554r100,-170r98,0r-139,170r-59,0","w":539},"\u00fb":{"d":"453,-488r0,402r70,0r0,86r-154,0r0,-62v-61,50,-112,76,-168,76v-103,0,-118,-66,-118,-175r0,-246r-72,0r0,-81r160,0r0,302v0,80,5,121,63,121v44,0,85,-25,132,-75r0,-267r-75,0r0,-81r162,0xm113,-554r96,-170r96,0r96,170r-60,0r-84,-112r-85,112r-59,0","w":539},"\u00fc":{"d":"453,-488r0,402r70,0r0,86r-154,0r0,-62v-61,50,-112,76,-168,76v-103,0,-118,-66,-118,-175r0,-246r-72,0r0,-81r160,0r0,302v0,80,5,121,63,121v44,0,85,-25,132,-75r0,-267r-75,0r0,-81r162,0xm108,-634v0,-29,25,-55,55,-55v30,0,55,25,55,55v0,32,-24,56,-55,56v-31,0,-55,-24,-55,-56xm295,-634v0,-29,26,-55,56,-55v30,0,54,25,54,55v0,32,-23,56,-54,56v-31,0,-56,-25,-56,-56","w":539},"\u00f9":{"d":"453,-488r0,402r70,0r0,86r-154,0r0,-62v-61,50,-112,76,-168,76v-103,0,-118,-66,-118,-175r0,-246r-72,0r0,-81r160,0r0,302v0,80,5,121,63,121v44,0,85,-25,132,-75r0,-267r-75,0r0,-81r162,0xm327,-554r-59,0r-139,-170r98,0","w":539},"\u00ff":{"d":"53,162r0,-81r116,0r37,-96r-156,-392r-55,0r0,-81r205,0r0,81r-56,0r108,272r105,-272r-57,0r0,-81r195,0r0,81r-57,0r-219,569r-166,0xm97,-634v0,-29,25,-55,55,-55v30,0,55,25,55,55v0,32,-24,56,-55,56v-31,0,-55,-24,-55,-56xm284,-634v0,-29,26,-55,56,-55v30,0,54,25,54,55v0,32,-23,56,-54,56v-31,0,-56,-25,-56,-56","w":491},"\u017e":{"d":"26,0r0,-95r300,-318r-199,0r0,105r-81,0r0,-180r386,0r0,93r-299,315r213,0r0,-103r86,0r0,183r-406,0xm95,-724r59,0r85,111r84,-111r60,0r-96,170r-96,0","w":478},"\u2122":{"d":"339,-712r0,39r-84,0r0,224r-53,0r0,-224r-84,0r0,-39r221,0xm470,-712r74,188r69,-188r73,0r0,263r-48,0r0,-217r-81,217r-27,0r-85,-217r0,217r-48,0r0,-263r73,0","w":833},"\u00a9":{"d":"57,-355v0,-188,164,-360,359,-360v195,0,361,165,361,360v0,197,-173,360,-361,360v-189,0,-359,-171,-359,-360xm417,-43v162,0,312,-140,312,-312v0,-170,-144,-313,-312,-313v-170,0,-313,150,-313,313v0,163,148,312,313,312xm514,-443v-8,-50,-44,-78,-100,-78v-66,0,-110,59,-110,166v0,104,44,162,115,162v53,0,91,-32,100,-86r71,0v-6,85,-76,143,-174,143v-117,0,-190,-81,-190,-222v0,-132,79,-217,193,-217v93,0,160,54,167,132r-72,0","w":833},"\u00ac":{"d":"709,-420r0,245r-67,0r0,-177r-518,0r0,-68r585,0","w":833},"\u00ae":{"d":"57,-355v0,-186,162,-360,359,-360v193,0,361,166,361,360v0,197,-174,360,-361,360v-189,0,-359,-170,-359,-360xm414,-43v165,0,315,-140,315,-309v0,-174,-142,-316,-312,-316v-171,0,-313,151,-313,313v0,163,148,312,310,312xm426,-566v114,0,170,38,170,112v0,58,-34,98,-93,110r91,186r-86,0r-83,-174r-76,0r0,174r-77,0r0,-408r154,0xm517,-446v9,-71,-87,-73,-168,-70r0,135v77,2,178,4,168,-65","w":833},"\u2212":{"d":"709,-333r0,69r-585,0r0,-69r585,0","w":833},"\u00d0":{"d":"205,-91r127,0v160,0,242,-89,242,-259v0,-165,-81,-259,-228,-259r-141,0r0,199r163,0r0,76r-163,0r0,243xm341,0r-320,0r0,-90r84,0r0,-244r-105,0r0,-76r105,0r0,-199r-84,0r0,-85r320,0v219,0,343,129,343,347v0,218,-124,347,-343,347","w":719},"\u00de":{"d":"201,-557r98,0v178,0,266,64,266,202v0,136,-88,204,-266,204r-98,0r0,61r83,0r0,90r-264,0r0,-90r82,0r0,-519r-82,0r0,-85r264,0r0,85r-83,0r0,52xm201,-234r83,0v116,0,175,-33,175,-119v0,-85,-60,-118,-175,-118r-83,0r0,237","w":601},"\u00dd":{"d":"29,-609r-84,0r0,-85r276,0r0,85r-75,0r131,206r135,-206r-87,0r0,-85r271,0r0,85r-85,0r-192,291r0,228r90,0r0,90r-281,0r0,-90r91,0r0,-228xm201,-760r100,-170r98,0r-139,170r-59,0","w":542},"\u00a6":{"d":"287,-699r0,370r-73,0r0,-370r73,0xm287,-199r0,370r-73,0r0,-370r73,0"},"\u00b0":{"d":"165,-711v77,0,140,63,140,141v0,76,-61,140,-141,140v-79,0,-140,-62,-140,-140v0,-79,64,-141,141,-141xm259,-571v0,-52,-41,-94,-94,-94v-52,0,-95,41,-95,94v0,53,42,96,95,96v54,0,94,-44,94,-96","w":329},"\u00f7":{"d":"417,-540v33,0,61,28,61,62v0,33,-27,61,-61,61v-34,0,-61,-27,-61,-61v0,-34,28,-62,61,-62xm709,-332r0,68r-585,0r0,-68r585,0xm417,-179v33,0,61,27,61,61v0,33,-27,61,-61,61v-35,0,-61,-27,-61,-61v0,-34,28,-61,61,-61","w":833},"\u00f0":{"d":"330,-464r-45,-73r-167,53r-13,-46r154,-49r-27,-46r-82,0r0,-69r137,0r53,88r148,-48r15,47r-137,44v56,97,155,214,155,338v0,139,-102,239,-245,239v-144,0,-244,-97,-244,-246v-1,-170,137,-280,298,-232xm276,-76v88,0,147,-57,147,-157v0,-98,-56,-158,-147,-158v-90,0,-147,58,-147,158v0,99,59,157,147,157","w":553},"\u03bc":{"d":"188,-523r-63,293v-22,84,3,166,91,166v90,0,133,-62,162,-197r56,-262r87,0r-76,357v-6,29,-11,51,-11,65v0,30,21,36,51,32r-15,70v-65,12,-114,7,-126,-58v-51,82,-198,88,-257,7r-54,259r-88,0r155,-732r88,0","w":562},"\u00d7":{"d":"420,-346r229,-229r48,48r-229,229r229,229r-48,47r-229,-228r-229,228r-48,-47r229,-229r-229,-229r48,-48","w":833},"\u00bd":{"d":"73,-304r0,-48r57,0r0,-293r-57,0r0,-48r116,0r0,341r54,0r0,48r-170,0xm145,14r433,-720r67,0r-433,720r-67,0xm757,-287v0,128,-187,137,-201,239r149,0r0,-89r54,0r0,137r-265,0v-1,-59,20,-104,60,-142v53,-51,140,-65,140,-146v0,-39,-26,-63,-64,-63v-51,0,-72,35,-73,106r-55,0v-5,-97,45,-150,134,-150v72,0,121,42,121,108","w":791},"\u00bc":{"d":"73,-304r0,-48r57,0r0,-293r-57,0r0,-48r116,0r0,341r54,0r0,48r-170,0xm145,14r433,-720r67,0r-433,720r-67,0xm612,0r0,-48r49,0r0,-62r-150,0v-2,-18,-9,-31,-23,-43r171,-242r54,0r0,242r62,0r0,43r-62,0r0,62r43,0r0,48r-144,0xm661,-153r3,-177r-124,177r121,0","w":791},"\u00b9":{"d":"77,-277r0,-52r60,0r0,-313r-60,0r0,-51r121,0r0,364r57,0r0,52r-178,0","w":327},"\u00b1":{"d":"451,-582r0,166r258,0r0,68r-258,0r0,166r-69,0r0,-166r-258,0r0,-68r258,0r0,-166r69,0xm709,-83r0,69r-585,0r0,-69r585,0","w":833},"\u00fe":{"d":"85,-613r-70,0r0,-81r159,0r0,277v44,-41,93,-72,163,-72v128,0,219,97,219,252v0,155,-91,251,-219,251v-62,0,-111,-23,-163,-72r0,135r93,0r0,85r-252,0r0,-85r70,0r0,-690xm317,-73v88,0,145,-61,145,-166v0,-105,-57,-166,-145,-166v-87,0,-143,60,-143,166v0,105,62,166,143,166","w":590},"\u00be":{"d":"114,-486r0,-45v63,2,102,-21,102,-66v0,-37,-25,-60,-65,-60v-47,0,-68,29,-67,83r-54,0v-3,-80,43,-121,120,-125v133,-7,171,152,57,188v137,37,85,222,-58,215v-82,-4,-132,-50,-131,-137v18,1,40,-2,56,1v0,60,31,93,78,93v44,0,77,-29,77,-72v0,-53,-46,-81,-115,-75xm145,14r433,-720r67,0r-433,720r-67,0xm612,0r0,-48r49,0r0,-62r-150,0v-2,-18,-9,-31,-23,-43r171,-242r54,0r0,242r62,0r0,43r-62,0r0,62r43,0r0,48r-144,0xm661,-153r3,-177r-124,177r121,0","w":791},"\u00b3":{"d":"119,-472r0,-49v66,3,107,-22,107,-70v0,-39,-26,-64,-68,-64v-49,0,-71,29,-70,88r-57,0v-3,-84,46,-130,126,-134v140,-7,180,164,59,202v59,19,84,52,84,106v0,75,-56,124,-144,124v-87,0,-140,-54,-138,-147v18,2,44,-4,59,2v0,64,33,100,82,100v46,0,81,-32,81,-78v0,-57,-48,-87,-121,-80","w":327},"\u00b2":{"d":"16,-277v-1,-63,22,-111,63,-152v55,-55,147,-69,147,-156v0,-42,-28,-68,-68,-68v-53,0,-75,37,-76,114r-58,0v-5,-103,47,-158,140,-162v112,-4,165,121,97,197v-57,64,-168,94,-180,175r156,0r0,-95r57,0r0,147r-278,0","w":327},"\u00fd":{"d":"53,162r0,-81r116,0r37,-96r-156,-392r-55,0r0,-81r205,0r0,81r-56,0r108,272r105,-272r-57,0r0,-81r195,0r0,81r-57,0r-219,569r-166,0xm176,-554r100,-170r98,0r-139,170r-59,0","w":491},"\u00a0":{"w":248}}});
/*!
 * The following copyright notice may not be removed under any circumstances.
 * 
 * Copyright:
 * Copyright 1990 as an unpublished work by Bitstream Inc.  All rights reserved. 
 * Confidential.
 */
Cufon.registerFont({"w":500,"face":{"font-family":"Geometric Slabserif","font-weight":700,"font-stretch":"normal","units-per-em":"1000","panose-1":"2 0 8 3 0 0 0 0 0 0","ascent":"800","descent":"-200","x-height":"14","bbox":"-167 -963 1146 236","underline-thickness":"111","underline-position":"-103","stemh":"121","stemv":"149","unicode-range":"U+0020-U+FB02"},"glyphs":{" ":{"w":260},"!":{"d":"67,0r0,-162r153,0r0,162r-153,0xm106,-242r-37,-252r0,-200r149,0r0,200r-38,252r-74,0","w":287},"\"":{"d":"39,-702r94,0r0,273r-94,0r0,-273xm198,-702r94,0r0,273r-94,0r0,-273","w":331},"#":{"d":"346,-715r108,0r-71,203r118,0r72,-203r108,0r-72,203r138,0r-36,98r-137,0r-41,118r142,0r-35,98r-142,0r-72,203r-108,0r72,-203r-119,0r-73,203r-107,0r71,-203r-140,0r37,-98r138,0r42,-118r-146,0r36,-98r145,0xm346,-414r-43,118r123,0r42,-118r-122,0","w":769},"$":{"d":"213,-5v-27,-9,-50,-22,-68,-39r0,44r-107,0r0,-238r107,0v-7,78,16,103,73,131r0,-195r-63,-35v-84,-48,-122,-102,-122,-177v0,-107,66,-174,180,-178r0,-79r65,0r0,80v27,9,49,24,69,41r0,-44r106,0r0,217r-106,0r0,-48v-11,-32,-34,-51,-72,-62r0,163r61,35v103,59,152,121,152,210v0,119,-73,183,-210,182r0,101r-65,0r0,-109xm220,-448r0,-146v-39,3,-62,28,-62,66v0,34,20,56,62,80xm274,-274r0,174v53,-5,82,-32,82,-77v0,-42,-26,-70,-82,-97","w":521},"%":{"d":"178,-307v-95,0,-161,-74,-161,-199v0,-125,66,-200,161,-200v96,0,160,75,160,200v0,125,-64,199,-160,199xm177,-400v33,0,57,-38,57,-106v0,-68,-24,-106,-57,-106v-31,0,-55,38,-55,106v0,68,24,106,55,106xm653,-706r-424,720r-87,0r424,-720r87,0xm617,-79v33,0,56,-38,56,-106v0,-68,-23,-106,-56,-106v-31,0,-56,38,-56,106v0,68,25,106,56,106xm617,14v-95,0,-160,-74,-160,-199v0,-125,65,-200,160,-200v96,0,161,75,161,200v0,125,-65,199,-161,199","w":796},"&":{"d":"262,14v-130,0,-238,-102,-238,-227v0,-93,57,-161,176,-217v-32,-46,-48,-87,-48,-122v0,-90,70,-154,176,-154v110,0,177,60,177,144v0,62,-37,105,-113,150r100,127v37,-52,62,-99,76,-142r150,0r0,110r-76,0v-23,49,-48,91,-79,126r61,80r94,0r0,111r-190,0r-60,-80v-60,63,-128,94,-206,94xm325,-494v39,-26,59,-51,59,-79v0,-24,-22,-47,-50,-47v-31,0,-49,18,-49,46v0,21,13,47,40,80xm264,-345v-59,25,-90,67,-90,111v0,58,53,111,116,111v36,0,71,-17,109,-51","w":743},"\u2019":{"d":"54,-367r0,-75v55,-9,75,-34,72,-90r-68,0r0,-162r153,0r0,145v0,122,-45,178,-157,182","w":260},"(":{"d":"374,-609v-82,54,-119,163,-119,333v0,171,37,282,119,335r0,98v-169,-53,-267,-207,-267,-432v0,-225,99,-379,267,-431r0,97","w":426},")":{"d":"52,60v82,-54,118,-163,118,-333v0,-171,-36,-282,-118,-335r0,-98v169,53,267,207,267,432v0,225,-99,379,-267,431r0,-97","w":426},"*":{"d":"378,-633r25,79r-107,30r69,88r-67,48r-62,-92r-61,92r-67,-49r68,-87r-107,-31r26,-78r103,38r-4,-111r83,0r-4,111","w":472},"+":{"d":"367,-596r99,0r0,249r243,0r0,97r-243,0r0,250r-99,0r0,-250r-243,0r0,-97r243,0r0,-249","w":833},",":{"d":"47,166r0,-75v55,-9,76,-35,73,-91r-68,0r0,-162r153,0r0,145v0,122,-46,179,-158,183","w":260},"-":{"d":"37,-187r0,-129r259,0r0,129r-259,0","w":333},".":{"d":"54,0r0,-162r152,0r0,162r-152,0","w":260},"\/":{"d":"51,93r-82,0r273,-799r83,0","w":319},"0":{"d":"492,-337v0,224,-92,351,-232,351v-142,0,-231,-127,-231,-360v0,-233,89,-360,231,-360v145,0,232,128,232,369xm260,-95v46,0,79,-86,79,-253v0,-167,-32,-253,-79,-253v-47,0,-78,86,-78,253v0,167,32,253,78,253","w":521},"1":{"d":"94,0r0,-109r94,0r0,-482r-94,0r0,-103r244,0r0,585r86,0r0,109r-330,0","w":521},"2":{"d":"468,-527v0,185,-293,256,-297,418r189,0r0,-100r108,0r0,209r-436,0v-6,-115,20,-191,89,-271v61,-70,127,-119,168,-175v38,-52,42,-156,-38,-156v-54,0,-79,58,-76,146r-129,0v-12,-156,71,-250,220,-250v125,0,202,71,202,179","w":521},"3":{"d":"157,-234v3,89,30,131,88,131v53,0,85,-40,85,-107v0,-74,-39,-109,-122,-109r0,-108v74,1,113,-32,113,-96v0,-51,-23,-79,-66,-79v-44,0,-70,34,-76,99r-117,0v0,-126,77,-203,203,-203v120,0,197,74,197,183v0,76,-39,127,-117,153v91,23,137,80,137,173v0,124,-91,211,-226,211v-149,0,-229,-88,-223,-248r124,0","w":521},"4":{"d":"212,0r0,-109r72,0r0,-76r-256,0v-5,-29,-14,-56,-27,-83r301,-438r117,0r0,422r77,0r0,99r-77,0r0,76r71,0r0,109r-278,0xm287,-279r4,-259r-177,259r173,0","w":521},"5":{"d":"152,-204v6,69,37,107,88,107v58,0,95,-47,95,-129v0,-132,-122,-160,-173,-61r-112,-53r26,-354r381,0r0,170r-102,0r-8,-62r-171,0r-12,170v147,-98,326,-7,326,185v0,152,-91,245,-237,245v-135,0,-220,-75,-231,-203","w":521},"6":{"d":"363,-508v-12,-65,-35,-96,-78,-96v-63,0,-101,82,-97,205v134,-107,305,-23,305,172v0,146,-92,241,-219,241v-145,0,-238,-129,-238,-360v0,-234,90,-360,247,-360v113,0,184,64,197,180xm191,-308v-2,125,35,205,88,205v46,0,75,-41,75,-114v0,-118,-89,-150,-163,-91","w":521},"7":{"d":"79,0r0,-109r88,0v-1,-141,65,-284,189,-476r-209,0r0,101r-107,0r0,-210r448,0r0,93v-107,163,-163,321,-169,492r87,0r0,109r-327,0","w":521},"8":{"d":"363,-367v88,29,134,93,134,181v0,115,-94,200,-236,200v-144,0,-238,-85,-238,-200v0,-88,47,-152,135,-181v-77,-25,-118,-81,-118,-158v0,-104,86,-181,220,-181v134,0,221,77,221,181v0,77,-41,133,-118,158xm180,-508v0,56,35,97,80,97v44,0,81,-41,81,-97v0,-56,-36,-96,-81,-96v-46,0,-80,40,-80,96xm168,-201v0,62,41,107,92,107v51,0,93,-46,93,-107v0,-61,-40,-106,-93,-106v-52,0,-92,46,-92,106","w":521},"9":{"d":"157,-184v12,65,35,96,78,96v64,0,100,-83,96,-205v-133,107,-304,23,-304,-172v0,-146,91,-241,218,-241v145,0,239,129,239,360v0,234,-91,360,-248,360v-113,0,-183,-64,-196,-180xm328,-384v2,-125,-34,-205,-87,-205v-46,0,-76,41,-76,114v0,118,89,150,163,91","w":521},":":{"d":"65,0r0,-162r153,0r0,162r-153,0xm65,-332r0,-162r153,0r0,162r-153,0","w":284},";":{"d":"65,-332r0,-162r153,0r0,162r-153,0xm63,166r0,-75v55,-9,75,-35,72,-91r-67,0r0,-162r152,0r0,145v0,122,-45,179,-157,183","w":284},"<":{"d":"704,-583r0,107r-436,178r436,178r0,107r-575,-237r0,-97","w":833},"=":{"d":"124,-452r585,0r0,97r-585,0r0,-97xm124,-242r585,0r0,97r-585,0r0,-97","w":833},">":{"d":"129,-583r575,236r0,97r-575,237r0,-107r437,-178r-437,-178r0,-107","w":833},"?":{"d":"158,0r0,-162r153,0r0,162r-153,0xm199,-237r-10,-188v73,21,149,-6,149,-82v0,-57,-36,-94,-92,-94v-56,-1,-93,46,-86,113r-139,0v-4,-134,91,-218,238,-218v141,0,233,86,233,210v0,112,-77,184,-205,179r-16,80r-72,0","w":519},"@":{"d":"594,-342v-8,-53,-38,-81,-85,-81v-73,0,-138,91,-138,206v0,60,27,92,77,92v52,0,103,-42,120,-111xm957,-373v0,161,-114,321,-282,321v-69,0,-104,-27,-105,-81v-36,55,-82,80,-145,80v-104,0,-158,-58,-158,-166v0,-158,105,-275,236,-275v53,0,91,22,115,64r26,-48r87,0r-75,312v0,22,15,34,46,34v101,0,164,-136,164,-243v0,-152,-128,-268,-324,-268v-239,0,-408,176,-408,388v0,200,146,329,371,329v106,0,209,-33,295,-93r40,57v-100,75,-212,113,-333,113v-264,0,-465,-162,-463,-405v2,-276,229,-469,501,-469v231,0,412,139,412,350","w":1000},"A":{"d":"-20,0r0,-113r76,0r153,-473r-94,0r0,-108r463,0r0,108r-83,0r154,473r63,0r0,113r-308,0r0,-113r74,0r-38,-130r-201,0r-37,130r77,0r0,113r-299,0xm265,-333r151,0r-75,-257","w":692},"B":{"d":"255,-110v94,4,172,-5,172,-91v0,-85,-70,-117,-172,-109r0,200xm255,-412v86,5,152,-14,152,-88v0,-81,-64,-92,-152,-88r0,176xm319,-694v168,0,251,60,251,185v0,72,-31,113,-106,140v85,31,128,92,128,173v0,128,-81,196,-239,196r-337,0r0,-113r74,0r0,-473r-74,0r0,-108r303,0","w":632},"C":{"d":"30,-346v0,-206,150,-360,352,-360v91,0,162,28,215,86r0,-74r103,0r0,240r-103,0v-51,-92,-110,-134,-193,-134v-117,0,-190,90,-190,239v0,149,73,239,192,239v97,0,168,-60,204,-175r123,59v-54,156,-172,240,-339,240v-209,0,-364,-155,-364,-360","w":759},"D":{"d":"356,-694v218,0,342,128,342,347v0,219,-124,347,-342,347r-340,0r0,-113r74,0r0,-473r-74,0r0,-108r340,0xm259,-113v169,20,255,-55,255,-237v0,-174,-88,-251,-255,-236r0,473","w":728},"E":{"d":"473,-113r0,-114r125,0r0,227r-582,0r0,-113r74,0r0,-473r-74,0r0,-108r582,0r0,215r-125,0r0,-107r-214,0r0,170r177,0r0,114r-177,0r0,189r214,0","w":625},"F":{"d":"353,-113r0,113r-337,0r0,-113r74,0r0,-473r-74,0r0,-108r563,0r0,215r-125,0r0,-107r-195,0r0,170r147,0r0,114r-147,0r0,189r94,0","w":593},"G":{"d":"30,-346v0,-207,152,-360,356,-360v92,0,164,28,217,86r0,-74r103,0r0,240r-103,0v-52,-91,-111,-134,-195,-134v-118,0,-192,90,-192,239v0,149,73,239,193,239v95,0,159,-50,167,-128r-121,0r0,-112r296,0v7,230,-125,361,-353,364v-211,3,-368,-153,-368,-360","w":782},"H":{"d":"16,0r0,-113r74,0r0,-473r-74,0r0,-108r307,0r0,108r-64,0r0,159r199,0r0,-159r-63,0r0,-108r306,0r0,108r-74,0r0,473r74,0r0,113r-306,0r0,-113r63,0r0,-201r-199,0r0,201r64,0r0,113r-307,0","w":718},"I":{"d":"16,0r0,-113r74,0r0,-473r-74,0r0,-108r317,0r0,108r-74,0r0,473r74,0r0,113r-317,0","w":350},"J":{"d":"-33,20v19,6,38,9,54,9v59,0,72,-33,72,-106r0,-509r-86,0r0,-108r329,0r0,108r-74,0r0,507v0,164,-60,241,-207,241v-29,0,-58,-5,-88,-14r0,-128","w":350},"K":{"d":"16,0r0,-113r74,0r0,-473r-74,0r0,-108r317,0r0,108r-74,0r0,473r74,0r0,113r-317,0xm384,0r0,-113r73,0r-194,-254r211,-219r-76,0r0,-108r287,0r0,108r-58,0r-190,199r216,274r74,0r0,113r-343,0","w":685},"L":{"d":"449,-113r0,-213r109,0r0,326r-542,0r0,-113r74,0r0,-473r-74,0r0,-108r317,0r0,108r-74,0r0,473r190,0","w":593},"M":{"d":"406,0r-210,-586r0,473r72,0r0,113r-252,0r0,-113r72,0r0,-473r-72,0r0,-108r289,0r152,428r157,-428r305,0r0,108r-72,0r0,473r72,0r0,113r-308,0r0,-113r72,0r0,-473r-214,586r-63,0","w":934},"N":{"d":"213,-523r4,410r76,0r0,113r-277,0r0,-113r77,0r0,-473r-77,0r0,-108r271,0r257,449r-5,-341r-76,0r0,-108r277,0r0,108r-77,0r0,586r-149,0","w":752},"O":{"d":"30,-346v0,-210,160,-360,367,-360v203,0,355,156,355,360v0,205,-153,360,-361,360v-208,0,-361,-154,-361,-360xm391,-111v102,0,175,-91,175,-238v0,-147,-72,-238,-175,-238v-103,0,-175,91,-175,238v0,147,73,238,175,238","w":782},"P":{"d":"259,-586r0,216v105,5,172,-18,172,-108v0,-90,-66,-113,-172,-108xm259,-113r74,0r0,113r-317,0r0,-113r74,0r0,-473r-74,0r0,-108r328,0v181,0,265,64,265,216v0,152,-84,221,-265,221r-85,0r0,144","w":637},"Q":{"d":"621,151v-97,37,-215,-64,-289,-64v-34,0,-65,13,-97,41r-53,-65v35,-34,71,-55,109,-61v-165,-47,-261,-175,-261,-348v0,-209,160,-360,361,-360v210,0,361,155,361,360v0,182,-106,316,-283,353v67,36,109,48,187,35xm391,-111v102,0,175,-91,175,-238v0,-147,-72,-238,-175,-238v-103,0,-175,91,-175,238v0,147,73,238,175,238","w":782},"R":{"d":"259,-586r0,170v93,3,181,-6,172,-85v8,-78,-78,-89,-172,-85xm259,-113r74,0r0,113r-317,0r0,-113r74,0r0,-473r-74,0r0,-108r328,0v182,0,265,54,265,195v0,89,-41,146,-118,165r112,221r79,0r0,113r-194,0r-157,-306r-72,0r0,193","w":671},"S":{"d":"56,0r0,-238r111,0v1,89,44,135,122,135v55,0,90,-31,90,-74v0,-78,-132,-118,-197,-152v-90,-47,-134,-99,-134,-182v0,-113,81,-195,200,-195v57,0,105,17,152,53r0,-41r112,0r0,206r-112,0v-1,-66,-44,-109,-106,-109v-48,0,-79,28,-79,69v0,69,109,96,165,123v112,54,168,118,168,216v0,121,-84,204,-209,204v-66,0,-127,-21,-172,-59r0,44r-111,0","w":589},"T":{"d":"486,-113r0,113r-361,0r0,-113r96,0r0,-473r-97,0r0,162r-112,0r0,-270r588,0r0,270r-112,0r0,-162r-98,0r0,473r96,0","w":611},"U":{"d":"351,14v-184,0,-265,-91,-265,-301r0,-299r-76,0r0,-108r316,0r0,108r-69,0r0,316v0,108,31,160,99,160v69,0,101,-52,101,-160r0,-316r-68,0r0,-108r304,0r0,108r-76,0r0,299v9,215,-80,301,-266,301","w":704},"V":{"d":"252,0r-199,-586r-68,0r0,-108r305,0r0,108r-63,0r105,362r109,-362r-75,0r0,-108r296,0r0,108r-65,0r-200,586r-145,0","w":653},"W":{"d":"313,-217r101,-369r-57,0r0,-108r242,0r0,108r-57,0r101,369r101,-369r-57,0r0,-108r262,0r0,108r-61,0r-186,586r-133,0r-99,-356r-97,356r-134,0r-186,-586r-63,0r0,-108r284,0r0,108r-59,0","w":942},"X":{"d":"-33,0r0,-113r92,0r171,-245r-159,-228r-77,0r0,-108r320,0r0,108r-61,0r89,125r87,-125r-50,0r0,-108r272,0r0,108r-75,0r-162,231r169,242r90,0r0,113r-338,0r0,-113r67,0r-99,-141r-100,141r60,0r0,113r-296,0","w":653},"Y":{"d":"468,-113r0,113r-349,0r0,-113r90,0r0,-194r-167,-279r-77,0r0,-108r317,0r0,108r-61,0r92,155r93,-155r-59,0r0,-108r287,0r0,108r-78,0r-178,296r0,177r90,0","w":600},"Z":{"d":"17,0r0,-113r319,-472r-184,0r0,122r-113,0r0,-231r511,0r0,100r-323,481r217,0r0,-144r113,0r0,257r-540,0","w":588},"[":{"d":"272,53r131,0r0,95r-273,0r0,-842r273,0r0,94r-131,0r0,653","w":426},"\\":{"d":"268,93r-274,-799r82,0r274,799r-82,0","w":319},"]":{"d":"154,-600r-132,0r0,-94r274,0r0,842r-274,0r0,-95r132,0r0,-653","w":426},"^":{"d":"438,-713r123,0r235,274r-115,0r-181,-181r-182,181r-115,0","w":1000},"_":{"d":"0,136r500,0r0,100r-500,0r0,-100"},"\u2018":{"d":"209,-706r0,75v-55,9,-75,35,-72,91r68,0r0,162r-153,0r0,-146v0,-122,45,-178,157,-182","w":260},"a":{"d":"243,-506v168,1,229,56,229,222r0,175r70,0r0,109r-218,0r0,-34v-39,31,-89,48,-142,48v-95,0,-156,-59,-156,-155v0,-156,159,-213,298,-147v5,-76,-16,-124,-85,-124v-40,0,-71,15,-93,45r-109,-24v18,-70,91,-115,206,-115xm324,-132r0,-57v-52,-46,-155,-45,-152,38v4,91,102,74,152,19","w":546},"b":{"d":"224,0r-213,0r0,-109r65,0r0,-479r-65,0r0,-106r213,0r0,270v141,-152,363,-39,363,192v0,150,-86,246,-208,246v-64,0,-115,-26,-155,-79r0,65xm328,-98v64,0,106,-52,106,-144v0,-92,-42,-143,-106,-143v-63,0,-105,51,-105,143v0,92,42,144,105,144","w":616},"c":{"d":"411,-292v-19,-61,-61,-94,-118,-94v-71,0,-115,50,-115,139v0,90,42,140,118,140v58,0,97,-30,124,-93r116,59v-51,102,-136,155,-248,155v-156,0,-260,-102,-260,-260v0,-153,102,-260,244,-260v60,0,107,18,145,56r0,-44r106,0r0,200","w":556},"d":{"d":"392,-65v-40,53,-91,79,-155,79v-122,0,-208,-96,-208,-246v0,-231,222,-345,363,-192r0,-164r-65,0r0,-106r213,0r0,585r65,0r0,109r-213,0r0,-65xm288,-98v63,0,104,-52,104,-144v0,-92,-41,-143,-104,-143v-64,0,-106,51,-106,143v0,92,42,144,106,144","w":616},"e":{"d":"181,-219v4,79,46,123,118,123v49,0,86,-22,109,-66r116,37v-37,87,-125,139,-241,139v-152,0,-255,-102,-255,-260v0,-157,101,-260,255,-260v156,0,257,108,254,287r-356,0xm182,-303r197,0v-4,-58,-43,-94,-99,-94v-56,0,-94,36,-98,94","w":567},"f":{"d":"12,0r0,-109r64,0r0,-279r-64,0r0,-106r64,0v-13,-136,47,-211,179,-212v84,0,133,35,156,98r-124,45v-10,-53,-63,-60,-62,4r0,65r78,0r0,106r-78,0r0,279r78,0r0,109r-291,0","w":314},"g":{"d":"290,-98v63,0,105,-52,105,-144v0,-92,-42,-143,-105,-143v-64,0,-106,51,-106,143v0,92,42,144,106,144xm542,-62v8,168,-95,236,-264,236v-84,0,-158,-21,-214,-60r74,-85v51,23,97,35,140,35v92,2,128,-51,116,-139v-40,50,-91,75,-155,75v-125,0,-208,-91,-208,-243v0,-145,94,-251,213,-251v59,0,110,25,156,76r0,-76r207,0r0,106r-65,0r0,326","w":618},"h":{"d":"12,0r0,-109r64,0r0,-479r-64,0r0,-106r213,0r0,249v50,-32,94,-49,145,-49v86,0,135,56,135,164r0,221r69,0r0,109r-219,0r0,-293v7,-103,-77,-95,-129,-49r0,233r74,0r0,109r-288,0","w":579},"i":{"d":"81,-388r-65,0r0,-106r213,0r0,385r70,0r0,109r-283,0r0,-109r65,0r0,-279xm67,-624v0,-46,36,-82,81,-82v45,0,83,37,83,82v0,45,-38,81,-83,81v-45,0,-81,-35,-81,-81","w":306},"j":{"d":"60,-624v0,-46,36,-82,81,-82v45,0,83,37,83,82v0,45,-38,81,-83,81v-45,0,-81,-35,-81,-81xm74,-388r-64,0r0,-106r212,0r0,474v7,154,-100,215,-255,189r0,-115v75,6,107,-12,107,-90r0,-352","w":288},"k":{"d":"226,-109r74,0r0,109r-288,0r0,-109r64,0r0,-479r-64,0r0,-106r214,0r0,585xm229,-249r157,-139r-90,0r0,-106r283,0r0,106r-54,0r-136,122r131,157r59,0r0,109r-146,0","w":583},"l":{"d":"76,-588r-64,0r0,-106r213,0r0,585r69,0r0,109r-282,0r0,-109r64,0r0,-479","w":301},"m":{"d":"639,0r0,-293v7,-103,-78,-95,-130,-49r0,233r70,0r0,109r-219,0r0,-293v7,-103,-78,-95,-130,-49r0,233r75,0r0,109r-289,0r0,-109r65,0r0,-278r-65,0r0,-107r213,0r0,49v84,-60,200,-72,255,8v64,-36,117,-57,165,-57v91,0,139,55,139,164r0,221r70,0r0,109r-219,0","w":862},"n":{"d":"16,0r0,-109r65,0r0,-278r-65,0r0,-107r213,0r0,49v50,-32,94,-49,145,-49v86,0,135,56,135,164r0,221r70,0r0,109r-219,0r0,-293v7,-103,-78,-95,-130,-49r0,233r75,0r0,109r-289,0","w":583},"o":{"d":"550,-246v0,156,-107,260,-262,260v-156,0,-260,-102,-260,-260v0,-157,104,-260,260,-260v156,0,262,103,262,260xm288,-107v67,0,110,-51,110,-140v0,-88,-43,-138,-110,-138v-66,0,-110,50,-110,138v0,89,44,140,110,140","w":578},"p":{"d":"76,-388r-65,0r0,-106r207,0r0,76v137,-160,369,-51,369,186v0,150,-86,246,-208,246v-64,0,-115,-26,-155,-79r0,118r72,0r0,109r-285,0r0,-109r65,0r0,-441xm328,-98v64,0,106,-52,106,-144v0,-92,-42,-143,-106,-143v-63,0,-105,51,-105,143v0,92,42,144,105,144","w":616},"q":{"d":"288,-98v63,0,104,-52,104,-144v0,-92,-41,-143,-104,-143v-64,0,-106,51,-106,143v0,92,42,144,106,144xm392,-65v-40,53,-91,79,-155,79v-122,0,-208,-96,-208,-246v0,-157,92,-262,213,-262v59,0,110,25,156,76r0,-76r207,0r0,106r-65,0r0,441r65,0r0,109r-285,0r0,-109r72,0r0,-118","w":616},"r":{"d":"81,-388r-65,0r0,-106r200,0r0,117v30,-89,87,-129,183,-129r0,153v-118,3,-170,50,-170,155r0,89r77,0r0,109r-290,0r0,-109r65,0r0,-279","w":414},"s":{"d":"43,0r0,-174v37,2,83,-4,116,2v0,51,38,82,101,82v43,0,68,-20,68,-49v0,-57,-123,-57,-177,-73v-76,-22,-120,-67,-120,-139v0,-93,68,-155,170,-155v43,0,84,12,125,35r0,-23r111,0r0,143r-111,0v-20,-36,-57,-55,-104,-55v-35,0,-56,15,-56,38v-2,44,107,48,153,59v97,22,144,69,144,156v0,98,-71,167,-177,167v-42,0,-84,-11,-127,-33r0,19r-116,0","w":495},"t":{"d":"218,-176v-7,77,40,76,90,54r0,110v-34,18,-69,26,-108,26v-101,0,-131,-40,-131,-140r0,-262r-57,0r0,-106r57,0r0,-56r149,-126r0,182r90,0r0,106r-90,0r0,212","w":324},"u":{"d":"502,-494r0,388r65,0r0,106r-213,0r0,-35v-50,32,-94,49,-145,49v-86,0,-135,-57,-135,-165r0,-234r-69,0r0,-109r219,0r0,294v0,65,8,94,53,94v24,0,51,-11,76,-33r0,-246r-75,0r0,-109r224,0","w":579},"v":{"d":"201,0r-151,-388r-69,0r0,-106r281,0r0,106r-59,0r80,241r89,-241r-60,0r0,-106r246,0r0,106r-71,0r-153,388r-133,0","w":539},"w":{"d":"395,-315r-89,315r-134,0r-119,-388r-69,0r0,-106r266,0r0,106r-54,0r61,221r93,-327r128,0r96,327r64,-221r-52,0r0,-106r221,0r0,106r-69,0r-118,388r-129,0","w":794},"x":{"d":"-1,0r0,-109r69,0r100,-133r-103,-146r-55,0r0,-106r160,0r90,137r97,-137r133,0r0,106r-64,0r-94,127r106,152r71,0r0,109r-173,0r-96,-146r-104,146r-137,0","w":507},"y":{"d":"95,162r0,-106r104,0r22,-54r-170,-390r-65,0r0,-106r270,0r0,106r-56,0r91,219r80,-219r-52,0r0,-106r232,0r0,106r-66,0r-215,550r-175,0","w":539},"z":{"d":"15,0r0,-100r278,-295r-157,0r0,71r-100,0r0,-170r425,0r0,106r-272,288r176,0r0,-77r99,0r0,177r-449,0","w":486},"{":{"d":"431,-721r0,102v-80,-6,-107,14,-107,97r0,117v0,88,-18,127,-101,146v83,19,101,57,101,145r0,118v-5,83,27,102,107,96r0,102v-67,3,-136,-3,-174,-23v-73,-39,-51,-162,-51,-265v0,-96,-39,-129,-129,-122r0,-102v90,7,129,-27,129,-123v0,-103,-22,-227,51,-265v39,-20,107,-26,174,-23"},"|":{"d":"200,-764r101,0r0,1000r-101,0r0,-1000"},"}":{"d":"70,-721v69,-1,136,4,174,24v72,38,51,162,51,265v0,96,39,129,129,122r0,102v-92,-4,-129,26,-129,122v0,103,22,227,-51,265v-39,20,-107,26,-174,23r0,-102v79,6,107,-13,107,-96r0,-117v0,-88,17,-127,101,-146v-83,-19,-101,-58,-101,-146r0,-118v4,-83,-27,-102,-107,-96r0,-102"},"~":{"d":"276,-382v115,-1,185,65,288,65v59,0,116,-26,183,-75r0,108v-65,44,-124,67,-185,67v-103,-1,-193,-64,-287,-64v-59,0,-118,27,-188,77r0,-108v70,-47,133,-70,189,-70","w":833},"\u00a1":{"d":"181,-453r37,253r0,200r-149,0r0,-200r38,-253r74,0xm220,-694r0,162r-153,0r0,-162r153,0","w":287},"\u00a2":{"d":"384,-297v-8,-30,-25,-54,-50,-73r-79,249v69,13,106,-20,138,-87r110,56v-59,113,-148,168,-286,146r-41,134r-67,0r48,-152v-88,-38,-136,-119,-136,-230v1,-168,124,-282,287,-244r40,-127r67,0r-49,153v12,11,24,23,37,36r0,-58r88,0r0,197r-107,0xm196,-147r77,-242v-107,-8,-144,163,-77,242","w":521},"\u00a3":{"d":"245,-47v-36,41,-77,61,-126,61v-65,0,-114,-47,-114,-118v1,-101,97,-146,192,-103v3,-34,-2,-63,-14,-90r-150,0r0,-93r101,0v-34,-63,-52,-114,-52,-155v0,-99,77,-161,209,-161v122,0,188,61,195,182r-110,13v-5,-74,-29,-107,-85,-107v-43,0,-72,29,-72,72v0,38,27,85,58,156r131,0r0,93r-106,0v8,59,4,89,-12,143v86,40,138,35,149,-75r74,18v-6,227,-142,284,-268,164xm180,-111v-23,-26,-44,-40,-64,-40v-24,0,-38,15,-38,38v0,28,19,47,44,47v23,0,42,-16,58,-45","w":521},"\u2044":{"d":"-167,14r412,-720r88,0r-411,720r-89,0","w":167},"\u00a5":{"d":"459,-113r0,113r-332,0r0,-113r90,0r0,-173r-190,0r0,-64r164,0r-39,-66r-125,0r0,-64r87,0r-64,-106r-77,0r0,-108r307,0r0,108r-66,0r99,172r102,-172r-64,0r0,-108r275,0r0,108r-78,0r-63,106r89,0r0,64r-128,0r-42,66r170,0r0,64r-204,0r0,173r89,0","w":602},"\u0192":{"d":"490,-594v-66,-43,-114,-16,-128,72r-9,66r98,0r0,107r-114,0r-26,164v-35,223,-76,335,-210,335v-37,0,-70,-10,-100,-32r22,-117v94,56,113,1,136,-142r34,-208r-109,0r0,-107r121,0r13,-68v30,-186,143,-262,292,-190","w":521},"\u00a7":{"d":"485,-695r0,152r-105,0r0,-69v-49,-1,-100,-1,-100,40v0,16,13,45,38,69r176,172v97,86,64,219,-82,229v33,31,49,66,49,106v0,77,-52,112,-161,112r-188,0r0,-152r105,0r0,69v51,0,113,5,113,-40v0,-16,-13,-45,-38,-69r-193,-187v-39,-38,-59,-76,-59,-111v0,-64,58,-117,146,-117v-24,-26,-36,-56,-36,-92v0,-77,53,-112,161,-112r174,0xm419,-216v8,-35,-172,-205,-203,-196v-24,0,-38,15,-38,33v-12,30,172,207,202,196v24,0,39,-15,39,-33","w":588},"\u00a4":{"d":"84,-702r100,99v63,-49,173,-52,240,0r99,-99r51,52r-99,100v49,66,50,168,0,236r99,100r-51,51r-99,-99v-63,49,-175,52,-240,0r-100,99r-51,-51r99,-100v-50,-66,-49,-171,0,-236r-99,-100xm304,-567v-74,0,-135,62,-135,135v0,74,60,134,135,134v74,0,135,-60,135,-134v0,-73,-61,-135,-135,-135","w":606},"'":{"d":"39,-702r94,0r0,273r-94,0r0,-273","w":172},"\u201c":{"d":"213,-706r0,75v-55,9,-75,35,-72,91r67,0r0,162r-152,0r0,-146v0,-122,45,-178,157,-182xm428,-706r0,75v-55,9,-75,35,-72,91r68,0r0,162r-153,0r0,-146v0,-122,45,-178,157,-182","w":483},"\u00ab":{"d":"259,-399r-126,152r126,153r-104,0r-127,-153r127,-152r104,0xm434,-399r-126,152r126,153r-104,0r-127,-153r127,-152r104,0","w":462},"\u2039":{"d":"259,-399r-126,152r126,153r-104,0r-127,-153r127,-152r104,0","w":287},"\u203a":{"d":"25,-94r127,-153r-127,-152r105,0r127,152r-127,153r-105,0","w":287},"\ufb01":{"d":"16,0r0,-109r65,0r0,-279r-65,0r0,-106r65,0v-12,-147,64,-212,234,-212v105,0,173,32,205,98r-129,53v-21,-36,-48,-53,-83,-53v-60,0,-86,44,-79,114r296,0r0,385r70,0r0,109r-273,0r0,-109r55,0r0,-279r-148,0r0,279r61,0r0,109r-274,0","w":602},"\ufb02":{"d":"377,-599v-82,-35,-163,1,-148,105r67,0r0,106r-67,0r0,279r61,0r0,109r-274,0r0,-109r65,0r0,-279r-65,0r0,-106r65,0v-21,-168,117,-234,296,-205r148,0r0,590r70,0r0,109r-273,0r0,-109r55,0r0,-490","w":602},"\u2013":{"d":"500,-307r0,111r-500,0r0,-111r500,0"},"\u2020":{"d":"235,116r0,-456r-83,0r0,60r-98,0r0,-229r98,0r0,62r83,0r0,-155r-64,0r0,-92r246,0r0,92r-64,0r0,155r83,0r0,-62r98,0r0,229r-98,0r0,-60r-83,0r0,456r-118,0","w":588},"\u2021":{"d":"353,23r64,0r0,93r-247,0r0,-93r64,0r0,-107r-82,0r0,60r-98,0r0,-229r98,0r0,62r82,0r0,-204r-82,0r0,61r-98,0r0,-230r98,0r0,63r82,0r0,-101r-64,0r0,-92r247,0r0,92r-64,0r0,101r83,0r0,-63r98,0r0,230r-98,0r0,-61r-83,0r0,204r83,0r0,-62r98,0r0,229r-98,0r0,-60r-83,0r0,107","w":588},"\u00b7":{"d":"43,-346v0,-47,39,-86,86,-86v47,0,88,40,88,86v0,49,-39,87,-88,87v-49,0,-86,-38,-86,-87","w":260},"\u00b6":{"d":"480,-722r0,54r-55,0r0,668r-74,0r0,-668r-78,0r0,668r-74,0r0,-383v-111,-4,-179,-73,-179,-169v0,-100,73,-170,191,-170r269,0"},"\u2022":{"d":"150,-372v0,-80,65,-144,145,-144v79,0,144,64,144,144v0,79,-65,145,-145,145v-80,0,-144,-65,-144,-145","w":590},"\u201a":{"d":"47,166r0,-75v55,-9,76,-35,73,-91r-68,0r0,-162r153,0r0,145v0,122,-46,179,-158,183","w":260},"\u201e":{"d":"51,166r0,-75v55,-9,75,-35,72,-91r-67,0r0,-162r152,0r0,145v0,122,-45,179,-157,183xm266,166r0,-75v55,-9,75,-35,72,-91r-67,0r0,-162r153,0r0,145v0,122,-46,179,-158,183","w":483},"\u201d":{"d":"57,-367r0,-75v55,-9,75,-34,72,-90r-67,0r0,-162r153,0r0,145v0,122,-46,178,-158,182xm272,-367r0,-75v55,-9,76,-34,73,-90r-68,0r0,-162r153,0r0,145v0,122,-46,178,-158,182","w":483},"\u00bb":{"d":"25,-94r127,-153r-127,-152r105,0r127,152r-127,153r-105,0xm200,-94r126,-153r-126,-152r104,0r128,152r-128,153r-104,0","w":462},"\u2026":{"d":"91,0r0,-162r152,0r0,162r-152,0xm424,0r0,-162r152,0r0,162r-152,0xm758,0r0,-162r152,0r0,162r-152,0","w":1000},"\u2030":{"d":"178,-307v-95,0,-161,-74,-161,-199v0,-125,66,-200,161,-200v96,0,160,75,160,200v0,125,-64,199,-160,199xm177,-400v33,0,57,-38,57,-106v0,-68,-24,-106,-57,-106v-31,0,-55,38,-55,106v0,68,24,106,55,106xm653,-706r-424,720r-87,0r424,-720r87,0xm617,-79v33,0,56,-38,56,-106v0,-68,-23,-106,-56,-106v-31,0,-56,38,-56,106v0,68,25,106,56,106xm617,14v-95,0,-160,-74,-160,-199v0,-125,65,-200,160,-200v96,0,161,75,161,200v0,125,-65,199,-161,199xm985,-79v33,0,56,-38,56,-106v0,-68,-23,-106,-56,-106v-31,0,-56,38,-56,106v0,68,25,106,56,106xm985,14v-95,0,-160,-74,-160,-199v0,-125,65,-200,160,-200v96,0,161,75,161,200v0,125,-65,199,-161,199","w":1164},"\u00bf":{"d":"361,-692r0,162r-153,0r0,-162r153,0xm320,-455r9,187v-74,-20,-148,8,-148,83v0,57,35,94,91,94v56,1,94,-46,87,-113r139,0v4,134,-91,218,-238,218v-141,0,-233,-86,-233,-210v0,-112,77,-184,205,-179r15,-80r73,0","w":519},"`":{"d":"107,-741r126,0r96,181r-69,0"},"\u00b4":{"d":"393,-741r-153,181r-69,0r96,-181r126,0"},"\u02c6":{"d":"96,-560r96,-181r116,0r96,181r-69,0r-85,-106r-86,106r-68,0"},"\u02dc":{"d":"405,-717v-21,117,-86,136,-181,101v-36,-13,-65,-7,-75,33r-54,0v21,-95,59,-131,142,-108v43,12,104,37,114,-26r54,0"},"\u00af":{"d":"110,-611r0,-76r280,0r0,76r-280,0"},"\u02d8":{"d":"99,-724r60,0v4,51,33,72,91,72v58,0,86,-21,90,-72r60,0v-7,102,-54,148,-150,148v-96,0,-144,-47,-151,-148"},"\u02d9":{"d":"184,-649v0,-35,31,-67,66,-67v37,0,67,30,67,67v0,38,-29,67,-67,67v-36,0,-66,-31,-66,-67"},"\u00a8":{"d":"97,-650v0,-33,30,-64,64,-64v35,0,63,29,63,64v0,38,-26,64,-63,64v-36,0,-64,-28,-64,-64xm275,-650v0,-33,30,-64,64,-64v35,0,64,29,64,64v0,38,-27,64,-64,64v-36,0,-64,-28,-64,-64"},"\u02da":{"d":"121,-681v0,-72,56,-129,129,-129v73,0,130,57,130,129v0,73,-57,130,-130,130v-73,0,-129,-57,-129,-130xm191,-680v0,34,25,59,59,59v34,0,60,-26,60,-59v0,-33,-27,-60,-60,-60v-34,0,-59,26,-59,60"},"\u00b8":{"d":"112,214r0,-63v57,15,98,21,125,21v34,0,50,-11,50,-36v0,-34,-46,-37,-87,-33r0,-103r49,0r0,44v79,-2,123,29,122,93v0,65,-42,98,-129,98v-30,0,-74,-6,-130,-21"},"\u02dd":{"d":"144,-560r56,-181r108,0r-113,181r-51,0xm275,-560r75,-181r112,0r-132,181r-55,0"},"\u02db":{"d":"332,0v-40,29,-61,61,-61,89v0,39,42,36,81,35r0,100v-91,6,-168,-13,-168,-90v0,-49,31,-89,93,-134r55,0"},"\u02c7":{"d":"403,-741r-96,181r-116,0r-96,-181r69,0r86,107r85,-107r68,0"},"\u2014":{"d":"0,-196r0,-111r1000,0r0,111r-1000,0","w":1000},"\u00c6":{"d":"794,-113r0,-114r125,0r0,227r-562,0r0,-113r78,0r0,-189r-170,0r-81,189r75,0r0,113r-303,0r0,-113r78,0r210,-473r-115,0r0,-108r790,0r0,215r-125,0r0,-107r-188,0r0,170r151,0r0,114r-151,0r0,189r188,0xm314,-416r116,0r6,-186r-44,0","w":951},"\u00aa":{"d":"182,-703v123,1,172,34,172,155r0,123r53,0r0,76r-164,0r0,-24v-73,61,-223,40,-223,-75v0,-110,121,-147,223,-103v3,-54,-12,-88,-64,-86v-30,0,-53,10,-69,31r-82,-17v13,-49,68,-80,154,-80xm243,-441r0,-40v-38,-33,-114,-32,-114,26v0,65,76,53,114,14","w":410},"\u0141":{"d":"456,-113r0,-213r109,0r0,326r-542,0r0,-113r74,0r0,-126r-95,64r0,-111r95,-65r0,-235r-74,0r0,-108r317,0r0,108r-74,0r0,157r146,-99r0,111r-146,100r0,204r190,0","w":597},"\u00d8":{"d":"752,-346v0,206,-152,360,-361,360v-73,0,-133,-15,-184,-45r-59,81r-75,-55r61,-81v-65,-59,-104,-153,-104,-260v0,-208,158,-362,361,-360v68,0,128,13,181,42r53,-71r75,56r-53,70v69,67,105,158,105,263xm244,-212r253,-335v-132,-102,-281,1,-281,198v0,54,8,99,28,137xm538,-486r-253,334v129,104,281,0,281,-197v0,-52,-9,-97,-28,-137","w":782},"\u0152":{"d":"500,-586v-187,-9,-284,57,-284,236v0,179,95,247,284,237r0,-473xm856,-113r0,-114r125,0r0,227r-535,0v-115,0,-197,-10,-249,-39v-107,-59,-167,-167,-167,-304v0,-144,56,-249,163,-310v56,-32,139,-41,253,-41r535,0r0,215r-125,0r0,-107r-187,0r0,170r150,0r0,114r-150,0r0,189r187,0","w":1007},"\u00ba":{"d":"413,-521v0,109,-81,182,-197,182v-117,0,-195,-72,-195,-182v0,-110,78,-182,195,-182v117,0,197,72,197,182xm216,-424v50,0,83,-36,83,-98v0,-61,-33,-96,-83,-96v-49,0,-82,35,-82,96v0,62,33,98,82,98","w":434},"\u00e6":{"d":"472,-303r189,0v-4,-59,-40,-94,-94,-94v-54,0,-91,35,-95,94xm375,-73v-52,59,-109,87,-181,87v-108,0,-167,-56,-167,-158v0,-104,70,-171,181,-171v38,0,80,9,128,27v5,-77,-17,-124,-89,-124v-41,0,-73,15,-96,45r-114,-24v18,-71,95,-115,218,-115v72,0,127,15,167,49v43,-34,90,-49,147,-49v148,0,245,107,244,286r-342,0v4,80,45,124,114,124v48,0,83,-22,104,-66r112,37v-52,156,-324,188,-426,52xm336,-201v-69,-30,-157,-32,-157,50v0,90,105,69,158,18v-1,-19,-1,-41,-1,-68","w":845},"\u0131":{"d":"81,-388r-65,0r0,-106r213,0r0,385r70,0r0,109r-283,0r0,-109r65,0r0,-279","w":306},"\u0142":{"d":"82,-294r-82,53r0,-79r82,-54r0,-214r-65,0r0,-106r213,0r0,261r82,-53r0,80r-82,53r0,244r70,0r0,109r-283,0r0,-109r65,0r0,-185","w":312},"\u00f8":{"d":"5,-28r66,-63v-28,-42,-43,-94,-43,-155v0,-157,104,-260,260,-260v64,0,115,16,160,50r68,-66r56,58r-66,64v29,42,44,93,44,154v0,156,-107,260,-262,260v-63,0,-114,-15,-159,-49r-67,65xm183,-186r179,-173v-79,-69,-187,-14,-187,113v0,21,3,40,8,60xm394,-307r-179,174v81,69,188,9,188,-115v0,-21,-3,-40,-9,-59","w":578},"\u0153":{"d":"466,-52v-47,44,-107,66,-180,66v-154,0,-258,-102,-258,-260v0,-157,104,-260,258,-260v69,0,132,23,180,66v44,-43,104,-66,177,-66v154,0,255,107,252,287r-353,0v4,78,46,123,117,123v49,0,84,-22,107,-66r116,37v-36,87,-124,139,-239,139v-72,0,-132,-22,-177,-66xm543,-303r195,0v-4,-59,-42,-94,-98,-94v-56,0,-93,35,-97,94xm285,-107v66,0,109,-51,109,-140v0,-88,-42,-138,-109,-138v-66,0,-108,50,-108,138v0,89,43,140,108,140","w":926},"\u00df":{"d":"75,-461v0,-165,76,-246,233,-246v125,0,200,65,200,168v0,62,-31,103,-88,117v90,8,146,82,146,207v0,165,-119,252,-278,212r0,-120v81,14,138,-20,138,-100v0,-86,-52,-132,-139,-123r0,-115v56,-6,84,-30,84,-74v0,-42,-29,-71,-72,-71v-58,0,-76,34,-76,108r0,389r27,0r0,109r-240,0r0,-109r65,0r0,-352","w":597},"\u00c1":{"d":"-20,0r0,-113r76,0r153,-473r-94,0r0,-108r463,0r0,108r-83,0r154,473r63,0r0,113r-308,0r0,-113r74,0r-38,-130r-201,0r-37,130r77,0r0,113r-299,0xm265,-333r151,0r-75,-257xm489,-941r-153,181r-69,0r96,-181r126,0","w":692},"\u00c2":{"d":"-20,0r0,-113r76,0r153,-473r-94,0r0,-108r463,0r0,108r-83,0r154,473r63,0r0,113r-308,0r0,-113r74,0r-38,-130r-201,0r-37,130r77,0r0,113r-299,0xm265,-333r151,0r-75,-257xm192,-760r96,-181r116,0r96,181r-69,0r-85,-106r-86,106r-68,0","w":692},"\u00c4":{"d":"-20,0r0,-113r76,0r153,-473r-94,0r0,-108r463,0r0,108r-83,0r154,473r63,0r0,113r-308,0r0,-113r74,0r-38,-130r-201,0r-37,130r77,0r0,113r-299,0xm265,-333r151,0r-75,-257xm193,-850v0,-33,30,-64,64,-64v35,0,63,29,63,64v0,38,-26,64,-63,64v-36,0,-64,-28,-64,-64xm371,-850v0,-33,30,-64,64,-64v35,0,64,29,64,64v0,38,-27,64,-64,64v-36,0,-64,-28,-64,-64","w":692},"\u00c0":{"d":"-20,0r0,-113r76,0r153,-473r-94,0r0,-108r463,0r0,108r-83,0r154,473r63,0r0,113r-308,0r0,-113r74,0r-38,-130r-201,0r-37,130r77,0r0,113r-299,0xm265,-333r151,0r-75,-257xm203,-941r126,0r96,181r-69,0","w":692},"\u00c5":{"d":"-20,0r0,-113r76,0r153,-473r-94,0r0,-98r463,0r0,98r-83,0r154,473r63,0r0,113r-308,0r0,-113r74,0r-38,-130r-201,0r-37,130r77,0r0,113r-299,0xm265,-333r151,0r-75,-257xm292,-838v0,31,23,54,55,54v31,0,54,-23,54,-54v0,-30,-24,-55,-54,-55v-31,0,-55,24,-55,55xm222,-838v0,-70,55,-125,125,-125v69,0,124,56,124,125v0,70,-54,124,-124,124v-70,0,-125,-54,-125,-124","w":692},"\u00c3":{"d":"-20,0r0,-113r76,0r153,-473r-94,0r0,-108r463,0r0,108r-83,0r154,473r63,0r0,113r-308,0r0,-113r74,0r-38,-130r-201,0r-37,130r77,0r0,113r-299,0xm265,-333r151,0r-75,-257xm501,-917v-21,117,-86,136,-181,101v-36,-13,-65,-7,-75,33r-54,0v21,-95,59,-131,142,-108v43,12,104,37,114,-26r54,0","w":692},"\u00c7":{"d":"30,-346v0,-206,150,-360,352,-360v91,0,162,28,215,86r0,-74r103,0r0,240r-103,0v-51,-92,-110,-134,-193,-134v-117,0,-190,90,-190,239v0,149,73,239,192,239v97,0,168,-60,204,-175r123,59v-54,156,-172,240,-339,240v-209,0,-364,-155,-364,-360xm242,214r0,-63v57,15,98,21,125,21v34,0,50,-11,50,-36v0,-34,-46,-37,-87,-33r0,-103r49,0r0,44v79,-2,123,29,122,93v0,65,-42,98,-129,98v-30,0,-74,-6,-130,-21","w":759},"\u00c9":{"d":"473,-113r0,-114r125,0r0,227r-582,0r0,-113r74,0r0,-473r-74,0r0,-108r582,0r0,215r-125,0r0,-107r-214,0r0,170r177,0r0,114r-177,0r0,189r214,0xm462,-941r-153,181r-69,0r96,-181r126,0","w":625},"\u00ca":{"d":"473,-113r0,-114r125,0r0,227r-582,0r0,-113r74,0r0,-473r-74,0r0,-108r582,0r0,215r-125,0r0,-107r-214,0r0,170r177,0r0,114r-177,0r0,189r214,0xm165,-760r96,-181r116,0r96,181r-69,0r-85,-106r-86,106r-68,0","w":625},"\u00cb":{"d":"473,-113r0,-114r125,0r0,227r-582,0r0,-113r74,0r0,-473r-74,0r0,-108r582,0r0,215r-125,0r0,-107r-214,0r0,170r177,0r0,114r-177,0r0,189r214,0xm166,-850v0,-33,30,-64,64,-64v35,0,63,29,63,64v0,38,-26,64,-63,64v-36,0,-64,-28,-64,-64xm344,-850v0,-33,30,-64,64,-64v35,0,64,29,64,64v0,38,-27,64,-64,64v-36,0,-64,-28,-64,-64","w":625},"\u00c8":{"d":"473,-113r0,-114r125,0r0,227r-582,0r0,-113r74,0r0,-473r-74,0r0,-108r582,0r0,215r-125,0r0,-107r-214,0r0,170r177,0r0,114r-177,0r0,189r214,0xm176,-941r126,0r96,181r-69,0","w":625},"\u00cd":{"d":"16,0r0,-113r74,0r0,-473r-74,0r0,-108r317,0r0,108r-74,0r0,473r74,0r0,113r-317,0xm318,-941r-153,181r-69,0r96,-181r126,0","w":350},"\u00ce":{"d":"16,0r0,-113r74,0r0,-473r-74,0r0,-108r317,0r0,108r-74,0r0,473r74,0r0,113r-317,0xm21,-760r96,-181r116,0r96,181r-69,0r-85,-106r-86,106r-68,0","w":350},"\u00cf":{"d":"16,0r0,-113r74,0r0,-473r-74,0r0,-108r317,0r0,108r-74,0r0,473r74,0r0,113r-317,0xm22,-850v0,-33,30,-64,64,-64v35,0,63,29,63,64v0,38,-26,64,-63,64v-36,0,-64,-28,-64,-64xm200,-850v0,-33,30,-64,64,-64v35,0,64,29,64,64v0,38,-27,64,-64,64v-36,0,-64,-28,-64,-64","w":350},"\u00cc":{"d":"16,0r0,-113r74,0r0,-473r-74,0r0,-108r317,0r0,108r-74,0r0,473r74,0r0,113r-317,0xm32,-941r126,0r96,181r-69,0","w":350},"\u00d1":{"d":"213,-523r4,410r76,0r0,113r-277,0r0,-113r77,0r0,-473r-77,0r0,-108r271,0r257,449r-5,-341r-76,0r0,-108r277,0r0,108r-77,0r0,586r-149,0xm531,-917v-21,117,-86,136,-181,101v-36,-13,-65,-7,-75,33r-54,0v21,-95,59,-131,142,-108v43,12,104,37,114,-26r54,0","w":752},"\u00d3":{"d":"30,-346v0,-210,160,-360,367,-360v203,0,355,156,355,360v0,205,-153,360,-361,360v-208,0,-361,-154,-361,-360xm391,-111v102,0,175,-91,175,-238v0,-147,-72,-238,-175,-238v-103,0,-175,91,-175,238v0,147,73,238,175,238xm534,-941r-153,181r-69,0r96,-181r126,0","w":782},"\u00d4":{"d":"30,-346v0,-210,160,-360,367,-360v203,0,355,156,355,360v0,205,-153,360,-361,360v-208,0,-361,-154,-361,-360xm391,-111v102,0,175,-91,175,-238v0,-147,-72,-238,-175,-238v-103,0,-175,91,-175,238v0,147,73,238,175,238xm237,-760r96,-181r116,0r96,181r-69,0r-85,-106r-86,106r-68,0","w":782},"\u00d6":{"d":"30,-346v0,-210,160,-360,367,-360v203,0,355,156,355,360v0,205,-153,360,-361,360v-208,0,-361,-154,-361,-360xm391,-111v102,0,175,-91,175,-238v0,-147,-72,-238,-175,-238v-103,0,-175,91,-175,238v0,147,73,238,175,238xm238,-850v0,-33,30,-64,64,-64v35,0,63,29,63,64v0,38,-26,64,-63,64v-36,0,-64,-28,-64,-64xm416,-850v0,-33,30,-64,64,-64v35,0,64,29,64,64v0,38,-27,64,-64,64v-36,0,-64,-28,-64,-64","w":782},"\u00d2":{"d":"30,-346v0,-210,160,-360,367,-360v203,0,355,156,355,360v0,205,-153,360,-361,360v-208,0,-361,-154,-361,-360xm391,-111v102,0,175,-91,175,-238v0,-147,-72,-238,-175,-238v-103,0,-175,91,-175,238v0,147,73,238,175,238xm248,-941r126,0r96,181r-69,0","w":782},"\u00d5":{"d":"30,-346v0,-210,160,-360,367,-360v203,0,355,156,355,360v0,205,-153,360,-361,360v-208,0,-361,-154,-361,-360xm391,-111v102,0,175,-91,175,-238v0,-147,-72,-238,-175,-238v-103,0,-175,91,-175,238v0,147,73,238,175,238xm546,-917v-21,117,-86,136,-181,101v-36,-13,-65,-7,-75,33r-54,0v21,-95,59,-131,142,-108v43,12,104,37,114,-26r54,0","w":782},"\u0160":{"d":"56,0r0,-238r111,0v1,89,44,135,122,135v55,0,90,-31,90,-74v0,-78,-132,-118,-197,-152v-90,-47,-134,-99,-134,-182v0,-113,81,-195,200,-195v57,0,105,17,152,53r0,-41r112,0r0,206r-112,0v-1,-66,-44,-109,-106,-109v-48,0,-79,28,-79,69v0,69,109,96,165,123v112,54,168,118,168,216v0,121,-84,204,-209,204v-66,0,-127,-21,-172,-59r0,44r-111,0xm448,-941r-96,181r-116,0r-96,-181r69,0r86,107r85,-107r68,0","w":589},"\u00da":{"d":"351,14v-184,0,-265,-91,-265,-301r0,-299r-76,0r0,-108r316,0r0,108r-69,0r0,316v0,108,31,160,99,160v69,0,101,-52,101,-160r0,-316r-68,0r0,-108r304,0r0,108r-76,0r0,299v9,215,-80,301,-266,301xm502,-941r-153,181r-69,0r96,-181r126,0","w":704},"\u00db":{"d":"351,14v-184,0,-265,-91,-265,-301r0,-299r-76,0r0,-108r316,0r0,108r-69,0r0,316v0,108,31,160,99,160v69,0,101,-52,101,-160r0,-316r-68,0r0,-108r304,0r0,108r-76,0r0,299v9,215,-80,301,-266,301xm205,-760r96,-181r116,0r96,181r-69,0r-85,-106r-86,106r-68,0","w":704},"\u00dc":{"d":"351,14v-184,0,-265,-91,-265,-301r0,-299r-76,0r0,-108r316,0r0,108r-69,0r0,316v0,108,31,160,99,160v69,0,101,-52,101,-160r0,-316r-68,0r0,-108r304,0r0,108r-76,0r0,299v9,215,-80,301,-266,301xm206,-850v0,-33,30,-64,64,-64v35,0,63,29,63,64v0,38,-26,64,-63,64v-36,0,-64,-28,-64,-64xm384,-850v0,-33,30,-64,64,-64v35,0,64,29,64,64v0,38,-27,64,-64,64v-36,0,-64,-28,-64,-64","w":704},"\u00d9":{"d":"351,14v-184,0,-265,-91,-265,-301r0,-299r-76,0r0,-108r316,0r0,108r-69,0r0,316v0,108,31,160,99,160v69,0,101,-52,101,-160r0,-316r-68,0r0,-108r304,0r0,108r-76,0r0,299v9,215,-80,301,-266,301xm216,-941r126,0r96,181r-69,0","w":704},"\u0178":{"d":"468,-113r0,113r-349,0r0,-113r90,0r0,-194r-167,-279r-77,0r0,-108r317,0r0,108r-61,0r92,155r93,-155r-59,0r0,-108r287,0r0,108r-78,0r-178,296r0,177r90,0xm147,-850v0,-33,30,-64,64,-64v35,0,63,29,63,64v0,38,-26,64,-63,64v-36,0,-64,-28,-64,-64xm325,-850v0,-33,30,-64,64,-64v35,0,64,29,64,64v0,38,-27,64,-64,64v-36,0,-64,-28,-64,-64","w":600},"\u017d":{"d":"17,0r0,-113r319,-472r-184,0r0,122r-113,0r0,-231r511,0r0,100r-323,481r217,0r0,-144r113,0r0,257r-540,0xm447,-941r-96,181r-116,0r-96,-181r69,0r86,107r85,-107r68,0","w":588},"\u00e1":{"d":"243,-506v168,1,229,56,229,222r0,175r70,0r0,109r-218,0r0,-34v-39,31,-89,48,-142,48v-95,0,-156,-59,-156,-155v0,-156,159,-213,298,-147v5,-76,-16,-124,-85,-124v-40,0,-71,15,-93,45r-109,-24v18,-70,91,-115,206,-115xm324,-132r0,-57v-52,-46,-155,-45,-152,38v4,91,102,74,152,19xm409,-741r-153,181r-69,0r96,-181r126,0","w":546},"\u00e2":{"d":"243,-506v168,1,229,56,229,222r0,175r70,0r0,109r-218,0r0,-34v-39,31,-89,48,-142,48v-95,0,-156,-59,-156,-155v0,-156,159,-213,298,-147v5,-76,-16,-124,-85,-124v-40,0,-71,15,-93,45r-109,-24v18,-70,91,-115,206,-115xm324,-132r0,-57v-52,-46,-155,-45,-152,38v4,91,102,74,152,19xm112,-560r96,-181r116,0r96,181r-69,0r-85,-106r-86,106r-68,0","w":546},"\u00e4":{"d":"243,-506v168,1,229,56,229,222r0,175r70,0r0,109r-218,0r0,-34v-39,31,-89,48,-142,48v-95,0,-156,-59,-156,-155v0,-156,159,-213,298,-147v5,-76,-16,-124,-85,-124v-40,0,-71,15,-93,45r-109,-24v18,-70,91,-115,206,-115xm324,-132r0,-57v-52,-46,-155,-45,-152,38v4,91,102,74,152,19xm113,-650v0,-33,30,-64,64,-64v35,0,63,29,63,64v0,38,-26,64,-63,64v-36,0,-64,-28,-64,-64xm291,-650v0,-33,30,-64,64,-64v35,0,64,29,64,64v0,38,-27,64,-64,64v-36,0,-64,-28,-64,-64","w":546},"\u00e0":{"d":"243,-506v168,1,229,56,229,222r0,175r70,0r0,109r-218,0r0,-34v-39,31,-89,48,-142,48v-95,0,-156,-59,-156,-155v0,-156,159,-213,298,-147v5,-76,-16,-124,-85,-124v-40,0,-71,15,-93,45r-109,-24v18,-70,91,-115,206,-115xm324,-132r0,-57v-52,-46,-155,-45,-152,38v4,91,102,74,152,19xm123,-741r126,0r96,181r-69,0","w":546},"\u00e5":{"d":"324,-132r0,-57v-52,-46,-155,-45,-152,38v4,91,102,74,152,19xm243,-506v168,1,229,56,229,222r0,175r70,0r0,109r-218,0r0,-34v-39,31,-89,48,-142,48v-95,0,-156,-59,-156,-155v0,-156,159,-213,298,-147v5,-76,-16,-124,-85,-124v-40,0,-71,15,-93,45r-109,-24v18,-70,91,-115,206,-115xm206,-663v0,31,22,54,54,54v31,0,55,-23,55,-54v0,-30,-25,-55,-55,-55v-31,0,-54,24,-54,55xm135,-663v0,-70,55,-125,125,-125v69,0,124,56,124,125v0,70,-54,124,-124,124v-70,0,-125,-54,-125,-124","w":546},"\u00e3":{"d":"243,-506v168,1,229,56,229,222r0,175r70,0r0,109r-218,0r0,-34v-39,31,-89,48,-142,48v-95,0,-156,-59,-156,-155v0,-156,159,-213,298,-147v5,-76,-16,-124,-85,-124v-40,0,-71,15,-93,45r-109,-24v18,-70,91,-115,206,-115xm324,-132r0,-57v-52,-46,-155,-45,-152,38v4,91,102,74,152,19xm421,-717v-21,117,-86,136,-181,101v-36,-13,-65,-7,-75,33r-54,0v21,-95,59,-131,142,-108v43,12,104,37,114,-26r54,0","w":546},"\u00e7":{"d":"411,-292v-19,-61,-61,-94,-118,-94v-71,0,-115,50,-115,139v0,90,42,140,118,140v58,0,97,-30,124,-93r116,59v-51,102,-136,155,-248,155v-156,0,-260,-102,-260,-260v0,-153,102,-260,244,-260v60,0,107,18,145,56r0,-44r106,0r0,200xm140,214r0,-63v57,15,98,21,125,21v34,0,50,-11,50,-36v0,-34,-46,-37,-87,-33r0,-103r49,0r0,44v79,-2,123,29,122,93v0,65,-42,98,-129,98v-30,0,-74,-6,-130,-21","w":556},"\u00e9":{"d":"181,-219v4,79,46,123,118,123v49,0,86,-22,109,-66r116,37v-37,87,-125,139,-241,139v-152,0,-255,-102,-255,-260v0,-157,101,-260,255,-260v156,0,257,108,254,287r-356,0xm182,-303r197,0v-4,-58,-43,-94,-99,-94v-56,0,-94,36,-98,94xm429,-741r-153,181r-69,0r96,-181r126,0","w":567},"\u00ea":{"d":"181,-219v4,79,46,123,118,123v49,0,86,-22,109,-66r116,37v-37,87,-125,139,-241,139v-152,0,-255,-102,-255,-260v0,-157,101,-260,255,-260v156,0,257,108,254,287r-356,0xm182,-303r197,0v-4,-58,-43,-94,-99,-94v-56,0,-94,36,-98,94xm132,-560r96,-181r116,0r96,181r-69,0r-85,-106r-86,106r-68,0","w":567},"\u00eb":{"d":"181,-219v4,79,46,123,118,123v49,0,86,-22,109,-66r116,37v-37,87,-125,139,-241,139v-152,0,-255,-102,-255,-260v0,-157,101,-260,255,-260v156,0,257,108,254,287r-356,0xm182,-303r197,0v-4,-58,-43,-94,-99,-94v-56,0,-94,36,-98,94xm133,-650v0,-33,30,-64,64,-64v35,0,63,29,63,64v0,38,-26,64,-63,64v-36,0,-64,-28,-64,-64xm311,-650v0,-33,30,-64,64,-64v35,0,64,29,64,64v0,38,-27,64,-64,64v-36,0,-64,-28,-64,-64","w":567},"\u00e8":{"d":"181,-219v4,79,46,123,118,123v49,0,86,-22,109,-66r116,37v-37,87,-125,139,-241,139v-152,0,-255,-102,-255,-260v0,-157,101,-260,255,-260v156,0,257,108,254,287r-356,0xm182,-303r197,0v-4,-58,-43,-94,-99,-94v-56,0,-94,36,-98,94xm143,-741r126,0r96,181r-69,0","w":567},"\u00ed":{"d":"81,-388r-65,0r0,-106r213,0r0,385r70,0r0,109r-283,0r0,-109r65,0r0,-279xm290,-741r-153,181r-69,0r96,-181r126,0","w":306},"\u00ee":{"d":"81,-388r-65,0r0,-106r213,0r0,385r70,0r0,109r-283,0r0,-109r65,0r0,-279xm-7,-560r96,-181r116,0r96,181r-69,0r-85,-106r-86,106r-68,0","w":306},"\u00ef":{"d":"81,-388r-65,0r0,-106r213,0r0,385r70,0r0,109r-283,0r0,-109r65,0r0,-279xm-6,-650v0,-33,30,-64,64,-64v35,0,63,29,63,64v0,38,-26,64,-63,64v-36,0,-64,-28,-64,-64xm172,-650v0,-33,30,-64,64,-64v35,0,64,29,64,64v0,38,-27,64,-64,64v-36,0,-64,-28,-64,-64","w":306},"\u00ec":{"d":"81,-388r-65,0r0,-106r213,0r0,385r70,0r0,109r-283,0r0,-109r65,0r0,-279xm4,-741r126,0r96,181r-69,0","w":306},"\u00f1":{"d":"16,0r0,-109r65,0r0,-278r-65,0r0,-107r213,0r0,49v50,-32,94,-49,145,-49v86,0,135,56,135,164r0,221r70,0r0,109r-219,0r0,-293v7,-103,-78,-95,-130,-49r0,233r75,0r0,109r-289,0xm439,-717v-21,117,-86,136,-181,101v-36,-13,-65,-7,-75,33r-54,0v21,-95,59,-131,142,-108v43,12,104,37,114,-26r54,0","w":583},"\u00f3":{"d":"550,-246v0,156,-107,260,-262,260v-156,0,-260,-102,-260,-260v0,-157,104,-260,260,-260v156,0,262,103,262,260xm288,-107v67,0,110,-51,110,-140v0,-88,-43,-138,-110,-138v-66,0,-110,50,-110,138v0,89,44,140,110,140xm432,-741r-153,181r-69,0r96,-181r126,0","w":578},"\u00f4":{"d":"550,-246v0,156,-107,260,-262,260v-156,0,-260,-102,-260,-260v0,-157,104,-260,260,-260v156,0,262,103,262,260xm288,-107v67,0,110,-51,110,-140v0,-88,-43,-138,-110,-138v-66,0,-110,50,-110,138v0,89,44,140,110,140xm135,-560r96,-181r116,0r96,181r-69,0r-85,-106r-86,106r-68,0","w":578},"\u00f6":{"d":"550,-246v0,156,-107,260,-262,260v-156,0,-260,-102,-260,-260v0,-157,104,-260,260,-260v156,0,262,103,262,260xm288,-107v67,0,110,-51,110,-140v0,-88,-43,-138,-110,-138v-66,0,-110,50,-110,138v0,89,44,140,110,140xm136,-650v0,-33,30,-64,64,-64v35,0,63,29,63,64v0,38,-26,64,-63,64v-36,0,-64,-28,-64,-64xm314,-650v0,-33,30,-64,64,-64v35,0,64,29,64,64v0,38,-27,64,-64,64v-36,0,-64,-28,-64,-64","w":578},"\u00f2":{"d":"550,-246v0,156,-107,260,-262,260v-156,0,-260,-102,-260,-260v0,-157,104,-260,260,-260v156,0,262,103,262,260xm288,-107v67,0,110,-51,110,-140v0,-88,-43,-138,-110,-138v-66,0,-110,50,-110,138v0,89,44,140,110,140xm146,-741r126,0r96,181r-69,0","w":578},"\u00f5":{"d":"550,-246v0,156,-107,260,-262,260v-156,0,-260,-102,-260,-260v0,-157,104,-260,260,-260v156,0,262,103,262,260xm288,-107v67,0,110,-51,110,-140v0,-88,-43,-138,-110,-138v-66,0,-110,50,-110,138v0,89,44,140,110,140xm444,-717v-21,117,-86,136,-181,101v-36,-13,-65,-7,-75,33r-54,0v21,-95,59,-131,142,-108v43,12,104,37,114,-26r54,0","w":578},"\u0161":{"d":"43,0r0,-174v37,2,83,-4,116,2v0,51,38,82,101,82v43,0,68,-20,68,-49v0,-57,-123,-57,-177,-73v-76,-22,-120,-67,-120,-139v0,-93,68,-155,170,-155v43,0,84,12,125,35r0,-23r111,0r0,143r-111,0v-20,-36,-57,-55,-104,-55v-35,0,-56,15,-56,38v-2,44,107,48,153,59v97,22,144,69,144,156v0,98,-71,167,-177,167v-42,0,-84,-11,-127,-33r0,19r-116,0xm401,-741r-96,181r-116,0r-96,-181r69,0r86,107r85,-107r68,0","w":495},"\u00fa":{"d":"502,-494r0,388r65,0r0,106r-213,0r0,-35v-50,32,-94,49,-145,49v-86,0,-135,-57,-135,-165r0,-234r-69,0r0,-109r219,0r0,294v0,65,8,94,53,94v24,0,51,-11,76,-33r0,-246r-75,0r0,-109r224,0xm420,-741r-153,181r-69,0r96,-181r126,0","w":579},"\u00fb":{"d":"502,-494r0,388r65,0r0,106r-213,0r0,-35v-50,32,-94,49,-145,49v-86,0,-135,-57,-135,-165r0,-234r-69,0r0,-109r219,0r0,294v0,65,8,94,53,94v24,0,51,-11,76,-33r0,-246r-75,0r0,-109r224,0xm123,-560r96,-181r116,0r96,181r-69,0r-85,-106r-86,106r-68,0","w":579},"\u00fc":{"d":"502,-494r0,388r65,0r0,106r-213,0r0,-35v-50,32,-94,49,-145,49v-86,0,-135,-57,-135,-165r0,-234r-69,0r0,-109r219,0r0,294v0,65,8,94,53,94v24,0,51,-11,76,-33r0,-246r-75,0r0,-109r224,0xm124,-650v0,-33,30,-64,64,-64v35,0,63,29,63,64v0,38,-26,64,-63,64v-36,0,-64,-28,-64,-64xm302,-650v0,-33,30,-64,64,-64v35,0,64,29,64,64v0,38,-27,64,-64,64v-36,0,-64,-28,-64,-64","w":579},"\u00f9":{"d":"502,-494r0,388r65,0r0,106r-213,0r0,-35v-50,32,-94,49,-145,49v-86,0,-135,-57,-135,-165r0,-234r-69,0r0,-109r219,0r0,294v0,65,8,94,53,94v24,0,51,-11,76,-33r0,-246r-75,0r0,-109r224,0xm134,-741r126,0r96,181r-69,0","w":579},"\u00ff":{"d":"95,162r0,-106r104,0r22,-54r-170,-390r-65,0r0,-106r270,0r0,106r-56,0r91,219r80,-219r-52,0r0,-106r232,0r0,106r-66,0r-215,550r-175,0xm117,-650v0,-33,30,-64,64,-64v35,0,63,29,63,64v0,38,-26,64,-63,64v-36,0,-64,-28,-64,-64xm295,-650v0,-33,30,-64,64,-64v35,0,64,29,64,64v0,38,-27,64,-64,64v-36,0,-64,-28,-64,-64","w":539},"\u017e":{"d":"15,0r0,-100r278,-295r-157,0r0,71r-100,0r0,-170r425,0r0,106r-272,288r176,0r0,-77r99,0r0,177r-449,0xm396,-741r-96,181r-116,0r-96,-181r69,0r86,107r85,-107r68,0","w":486},"\u2122":{"d":"101,-714r237,0r0,55r-82,0r0,212r-73,0r0,-212r-82,0r0,-55xm392,-714r96,0r62,162r60,-162r96,0r0,267r-66,0r0,-200r-75,200r-30,0r-77,-200r0,200r-66,0r0,-267","w":833},"\u00a9":{"d":"54,-358v0,-191,165,-364,362,-364v196,0,364,167,364,364v0,199,-176,363,-364,363v-190,0,-362,-172,-362,-363xm720,-359v0,-164,-139,-303,-303,-303v-165,0,-303,143,-303,303v0,161,143,303,303,303v158,0,303,-137,303,-303xm592,-438r-92,0v-5,-46,-36,-72,-84,-72v-57,0,-95,53,-95,151v0,96,35,147,99,147v47,0,77,-28,83,-79r94,0v-5,90,-76,150,-180,150v-120,0,-196,-81,-196,-215v0,-136,79,-220,197,-220v100,0,169,56,174,138","w":833},"\u00ac":{"d":"124,-422r585,0r0,245r-97,0r0,-149r-488,0r0,-96","w":833},"\u00ae":{"d":"54,-358v4,-203,169,-364,362,-364v195,0,364,166,364,364v0,198,-174,363,-364,363v-190,0,-366,-171,-362,-363xm720,-353v0,-171,-138,-309,-303,-309v-165,0,-303,145,-303,303v0,162,144,304,302,304v156,0,304,-138,304,-298xm266,-567r158,0v115,0,172,39,172,116v0,53,-33,93,-88,107r90,180r-109,0r-77,-165r-48,0r0,165r-98,0r0,-403xm364,-505r0,117v64,3,138,-1,131,-57v6,-56,-64,-63,-131,-60","w":833},"\u2212":{"d":"124,-348r585,0r0,99r-585,0r0,-99","w":833},"\u00d0":{"d":"360,-694v218,0,343,128,343,347v0,219,-125,347,-343,347r-339,0r0,-113r74,0r0,-209r-95,0r0,-98r95,0r0,-166r-74,0r0,-108r339,0xm257,-113v173,20,261,-53,261,-237v0,-177,-89,-252,-261,-236r0,166r122,0r0,98r-122,0r0,209","w":734},"\u00de":{"d":"259,-586r85,0v179,0,266,63,266,202v0,142,-86,208,-266,208r-85,0r0,63r74,0r0,113r-317,0r0,-113r74,0r0,-473r-74,0r0,-108r243,0r0,108xm259,-289v99,5,172,-18,172,-94v0,-76,-71,-99,-172,-94r0,188","w":637},"\u00dd":{"d":"468,-113r0,113r-349,0r0,-113r90,0r0,-194r-167,-279r-77,0r0,-108r317,0r0,108r-61,0r92,155r93,-155r-59,0r0,-108r287,0r0,108r-78,0r-178,296r0,177r90,0xm443,-941r-153,181r-69,0r96,-181r126,0","w":600},"\u00a6":{"d":"200,-699r101,0r0,370r-101,0r0,-370xm200,-199r101,0r0,370r-101,0r0,-370"},"\u00b0":{"d":"165,-715v82,0,148,67,148,149v0,81,-66,148,-149,148v-82,0,-147,-65,-147,-148v0,-83,66,-149,148,-149xm165,-652v-47,0,-86,38,-86,85v0,48,38,86,86,86v48,0,85,-40,85,-86v0,-47,-38,-85,-85,-85","w":329},"\u00f7":{"d":"417,-564v40,0,74,33,74,74v0,40,-32,74,-74,74v-41,0,-74,-33,-74,-74v0,-42,34,-74,74,-74xm124,-347r585,0r0,97r-585,0r0,-97xm417,-180v40,0,74,33,74,74v0,39,-33,73,-74,73v-41,0,-74,-32,-74,-73v0,-42,34,-74,74,-74","w":833},"\u00f0":{"d":"337,-448r-50,-81r-161,51r-12,-40r148,-48r-29,-47r-73,0r0,-81r144,0r62,97r148,-47r12,39r-138,45v55,94,161,223,161,336v0,143,-104,238,-261,238v-158,0,-260,-95,-260,-238v1,-164,140,-268,309,-224xm288,-107v67,0,110,-46,110,-123v0,-75,-43,-123,-110,-123v-67,0,-110,45,-110,123v0,77,44,123,110,123","w":578},"\u03bc":{"d":"100,-533r141,0r-37,212v-12,66,-15,111,-15,131v0,61,27,90,83,90v70,0,99,-57,121,-182r44,-251r141,0r-94,533r-131,0r9,-57v-43,95,-156,96,-209,14r-44,257r-140,0","w":610},"\u00d7":{"d":"203,-587r220,220r220,-220r69,68r-220,221r220,220r-69,68r-220,-220r-220,